mnist_model/dense/kernel:0
(784, 128)
[[ 2.64707133e-02  1.62729248e-02 -4.88120317e-03  3.74108478e-02
  -5.66747338e-02  1.76441073e-02 -7.07443729e-02  6.64709508e-03
  -5.87652624e-02  2.80602276e-03 -4.16899323e-02 -5.97186387e-03
  -4.16635945e-02 -3.83279100e-02 -2.45512277e-02  1.14340782e-02
  -1.10226348e-02  1.41611099e-02 -5.02330512e-02  4.52544466e-02
  -4.44932692e-02  8.40865821e-03  2.95437425e-02 -7.22183958e-02
  -1.18098408e-02 -7.71953017e-02 -2.96288878e-02 -4.70008887e-02
   3.64377052e-02 -3.90510857e-02  2.83265710e-02 -8.04651380e-02
  -5.52084297e-02 -4.60794158e-02  2.73891613e-02  4.37288061e-02
  -1.23506933e-02  2.57268250e-02  6.18490204e-02  5.96843883e-02
  -4.28236984e-02  2.44363397e-02  9.61877406e-03  4.97597456e-03
  -6.94702342e-02 -2.51946524e-02  6.63837269e-02  8.99896026e-03
   3.68080959e-02  2.28631720e-02  5.09722531e-03 -1.97108909e-02
   5.14467433e-02  3.68869007e-02 -3.95208709e-02  3.29596549e-02
  -1.41938254e-02  2.43726745e-02 -1.25375018e-02  5.44025674e-02
  -2.19110884e-02  3.84131372e-02 -6.58821091e-02 -3.72282788e-02
   1.61280259e-02  7.20292255e-02 -4.96062003e-02  3.09200436e-02
  -6.99758902e-02 -3.68862599e-02 -1.69313550e-02  3.33323479e-02
   1.10669807e-02 -6.92006722e-02  6.79188892e-02 -4.28135842e-02
  -5.95788658e-02  1.73366293e-02 -7.64284283e-03  2.38944218e-02
  -6.23664223e-02 -6.55009672e-02  4.83639017e-02 -6.32432029e-02
  -3.57927382e-02 -6.59072697e-02  4.19688672e-02 -2.62488611e-02
  -2.04693377e-02 -4.23256196e-02 -5.89001291e-02  6.02377579e-02
  -7.47613236e-02  5.30347005e-02 -5.09163290e-02 -6.58348277e-02
  -3.22352834e-02  5.57109937e-02 -3.80319767e-02 -3.20665948e-02
  -5.54719493e-02 -6.63752928e-02 -6.56147525e-02 -7.27651119e-02
   6.39725849e-02 -1.71538070e-02  3.58458981e-02  5.28226271e-02
   5.47060594e-02  3.80874574e-02  1.31378621e-02 -3.04876603e-02
   2.48678774e-02 -6.06727563e-02 -1.76333934e-02  1.61311030e-02
   5.50752804e-02 -1.37208551e-02  3.33916321e-02 -1.57621279e-02
  -6.85520917e-02  7.34320059e-02 -2.85096616e-02 -1.42727271e-02
  -2.83956639e-02 -3.41950245e-02  2.86733061e-02 -7.54325390e-02]
 [ 5.75329438e-02 -3.41629423e-02 -4.03442010e-02  4.19942811e-02
  -4.28882502e-02 -7.15764612e-02 -5.76569885e-02 -1.03725046e-02
  -7.26258531e-02 -2.78066397e-02  7.86086097e-02  6.49216697e-02
   1.75837353e-02  4.50940430e-03  7.36753121e-02  4.24361005e-02
   4.64202538e-02 -6.50221556e-02 -6.23433143e-02  4.84905317e-02
  -2.73971260e-03 -4.91615757e-02  7.52639100e-02  1.36961937e-02
   1.97954476e-03 -1.68543160e-02  7.90181234e-02  7.30295256e-02
  -2.39085406e-02  5.43219969e-02 -4.60673124e-02  6.64191321e-02
   4.04127762e-02  5.96295372e-02  7.48736486e-02  4.69220653e-02
   6.37226030e-02  4.54394296e-02 -4.39172983e-03 -1.45912915e-03
  -1.19101703e-02  4.25899401e-02  7.21171498e-03  3.66837680e-02
   4.73370403e-03 -3.17199938e-02 -7.68472999e-03 -3.44910957e-02
  -4.06794101e-02 -8.06452185e-02 -6.99406341e-02 -2.41854787e-03
   4.85689119e-02  4.61390540e-02  1.67489797e-02  3.91495973e-02
  -1.66956633e-02 -2.39251330e-02  1.33657604e-02  5.02784550e-03
   6.32502362e-02  4.16525155e-02  1.86569989e-03  3.86624634e-02
  -5.27889952e-02 -1.22018307e-02  4.76683751e-02  1.30689889e-03
  -1.27929077e-02  3.65390778e-02  2.39660516e-02  1.73442289e-02
  -1.13891736e-02 -1.59636140e-02  5.56000546e-02  3.20879668e-02
   2.33541504e-02 -6.64713830e-02 -1.41825527e-03  7.63881281e-02
  -1.32446438e-02  4.27961349e-05 -1.81244314e-03 -7.75330439e-02
   7.15018287e-02 -7.69378692e-02 -1.04453713e-02  1.25435144e-02
  -5.66255376e-02 -7.12976232e-02 -1.11973956e-02 -6.84488788e-02
  -3.61884944e-02  1.38280615e-02 -2.93552876e-02  4.84100059e-02
   1.58156455e-03 -5.37721515e-02  6.47502914e-02 -5.50535098e-02
  -7.77415112e-02 -5.57649657e-02 -7.64208212e-02 -6.38690442e-02
  -2.63552591e-02  4.02161479e-03  6.90614209e-02  2.76588127e-02
   8.92909616e-03 -1.23993903e-02 -4.05759700e-02  7.26523921e-02
   2.59058028e-02 -8.08276311e-02 -3.70560586e-03  7.11788312e-02
  -6.73021376e-02  2.09092647e-02  6.54375926e-02 -2.20821127e-02
  -3.80871110e-02  7.17005804e-02 -3.69518958e-02  4.62811962e-02
  -8.00609514e-02  2.33362243e-02 -4.55294736e-02 -2.07274668e-02]
 [-3.36221606e-03  3.05970758e-03  1.53152570e-02  4.84990254e-02
  -4.60390002e-02  6.73628598e-03  7.41266087e-02 -6.95622265e-02
   6.19284436e-02 -7.15641230e-02 -6.02312386e-04  1.85904652e-02
   2.83410549e-02  4.55367640e-02 -3.63656133e-02  7.77165666e-02
   6.40117899e-02  1.77353844e-02 -1.73035264e-02 -3.96088995e-02
   1.81164667e-02 -4.48054671e-02 -5.48036024e-02  1.53051391e-02
  -2.43702047e-02  4.21924964e-02 -6.97020218e-02 -7.31155202e-02
   3.03360671e-02  4.34399918e-02  5.90937957e-02  3.07056978e-02
   4.59611788e-02  7.77105317e-02 -2.03091390e-02 -7.54597485e-02
  -7.73530230e-02 -5.14424518e-02 -6.73925877e-03  2.90177763e-02
  -7.04814345e-02  5.09315357e-02  2.89972126e-03 -5.93881682e-02
  -5.51830381e-02  1.05072558e-03 -5.47707081e-02 -2.62734294e-03
   2.20236331e-02 -6.13419376e-02 -3.26484255e-02  7.22691193e-02
   7.92334750e-02  4.54292372e-02 -2.65241787e-02  4.33682650e-03
  -3.13968919e-02  4.84354272e-02 -3.51858996e-02  2.60416344e-02
   7.44399354e-02  6.69589862e-02  4.03909981e-02  4.57789972e-02
  -5.25217801e-02  2.48963609e-02  7.41391107e-02  8.82870704e-03
  -1.29973069e-02  4.23678160e-02  4.20790538e-02 -2.37810612e-02
   5.65668419e-02 -8.10777396e-02  7.30551854e-02  4.01998013e-02
  -6.58719167e-02  3.64151374e-02 -5.99806756e-02 -4.28906269e-02
   6.85966983e-02 -4.49560173e-02 -5.04858047e-02  3.40268239e-02
   1.28941983e-02  3.54631767e-02  2.40159631e-02 -6.02351502e-02
  -2.13212520e-03 -6.35945573e-02  4.97661307e-02 -5.28853014e-02
  -6.18070811e-02  4.80918065e-02  7.87694827e-02 -7.60199204e-02
   2.47973651e-02  4.67404947e-02 -6.42286986e-02  1.32052749e-02
  -1.79742128e-02  3.11004370e-03  7.21201226e-02  4.59546968e-02
   7.31987134e-02 -5.92728704e-03 -1.44213438e-02  7.38299116e-02
   7.81714395e-02  5.32069281e-02 -3.73520032e-02 -6.79407865e-02
   5.46924025e-03 -7.41229504e-02  5.05265519e-02 -3.92310657e-02
  -5.07860705e-02  3.18512321e-05  2.45167464e-02  6.58214092e-04
   4.17593122e-03  3.74244079e-02  3.54329497e-03  4.42875922e-03
   3.87198627e-02 -5.49652278e-02  6.65820166e-02 -4.63720448e-02]
 [-4.55864072e-02 -3.64147350e-02 -5.11644781e-03 -5.14723845e-02
  -5.70312366e-02 -4.93319854e-02  6.86524734e-02 -2.88882665e-02
  -1.94206834e-03 -6.89749792e-02 -2.66533978e-02  5.89151606e-02
  -3.67555730e-02  5.46788648e-02  3.67880240e-02  5.89989796e-02
  -7.45110661e-02 -5.22267148e-02 -5.89078069e-02 -3.52040194e-02
   4.50621024e-02  1.68658569e-02  5.55662811e-03  5.37408516e-02
   6.05814904e-03  2.37646848e-02 -4.23684716e-04 -4.60225046e-02
  -5.08081317e-02 -2.78130919e-03 -3.33002806e-02  3.86143327e-02
  -7.64745623e-02 -4.15066816e-02  5.82235530e-02 -2.98796445e-02
   3.98065969e-02 -6.80692494e-03  7.07547441e-02  5.02923131e-03
  -5.63045628e-02  7.82301202e-02 -1.55996233e-02  4.57807407e-02
  -4.53213938e-02 -6.09262995e-02 -1.87879913e-02 -1.32515132e-02
   4.97399643e-02  6.95418343e-02  3.33173946e-02  6.43152073e-02
  -4.39064093e-02  1.26447529e-03 -2.64525525e-02  3.35896239e-02
  -7.07804188e-02  7.53516480e-02 -3.34459171e-02  4.43202183e-02
  -5.02802357e-02 -8.08469728e-02 -7.09330365e-02 -7.89579675e-02
   3.43600959e-02 -5.11783846e-02  7.39947036e-02 -1.25493556e-02
   8.00725743e-02  7.27543235e-03 -6.57287166e-02  7.81206414e-02
  -7.44602457e-02 -3.93043607e-02 -1.31204575e-02 -9.06039774e-03
  -6.21008873e-02 -3.95191871e-02 -2.38048285e-02  4.71017584e-02
   1.42559037e-02 -6.53343275e-02  7.22835287e-02 -7.12421387e-02
  -2.47747414e-02  5.69719598e-02  4.70790491e-02 -4.57249656e-02
   6.73444346e-02 -5.71134649e-02 -4.10256535e-03  1.67811662e-03
  -7.40648583e-02 -5.86943701e-02  4.96646091e-02 -6.21106923e-02
  -3.59018445e-02  1.78448632e-02 -7.63344392e-02  3.33424956e-02
  -5.95597401e-02  4.81770262e-02  5.85262254e-02 -2.14421898e-02
   5.25521263e-02 -5.35834320e-02 -3.86859030e-02 -2.14639083e-02
   7.17829540e-02  6.92398176e-02  2.82181948e-02 -1.46781653e-03
   4.34763730e-03  7.37040490e-03 -5.55644669e-02  1.88326985e-02
   3.18035558e-02 -2.44453512e-02  7.28956982e-02  1.37468427e-02
  -2.43277922e-02  8.92847776e-04 -6.84033930e-02  3.79754156e-02
  -4.60564829e-02  6.31432608e-02  2.16008052e-02  2.90055349e-02]
 [-2.01090276e-02 -1.57319754e-02 -5.59740141e-02 -7.78187066e-03
  -7.79880956e-02  4.51816097e-02 -3.21766697e-02 -4.15925644e-02
   3.69818509e-02  6.73555061e-02  5.12845740e-02 -1.56711191e-02
  -7.79186338e-02  4.69576046e-02  4.63451669e-02  1.96153000e-02
   5.25469109e-02  3.46328467e-02 -6.32308424e-02  5.84325418e-02
   5.11774346e-02 -2.54951119e-02  4.67144474e-02 -4.71625365e-02
   9.98314470e-03 -5.44246659e-02 -6.78689778e-02 -4.33178693e-02
   3.57843265e-02 -6.56288117e-03 -2.17432119e-02  7.06368312e-02
   2.39344686e-02  7.73921832e-02  7.16485009e-02  5.41154817e-02
   3.31155807e-02  3.37131321e-02  3.25639546e-02 -9.91617888e-03
  -5.71813211e-02  1.91321522e-02  3.64384204e-02 -4.29925025e-02
   1.91536993e-02 -6.44797906e-02 -1.07751861e-02  2.55325511e-02
   5.46969250e-02 -7.72700235e-02 -6.07348233e-03  2.22463161e-02
  -6.06809743e-02 -5.46361506e-02  4.31881249e-02 -5.31960875e-02
   7.00472817e-02  1.65301859e-02  7.65903220e-02  3.53509113e-02
   4.32934090e-02  4.03681397e-02  5.78658804e-02 -7.95593932e-02
  -5.96608408e-02  5.50337508e-02  3.03231329e-02  1.05175376e-02
  -6.55976385e-02 -3.74704599e-03 -6.52789325e-03 -3.17326821e-02
  -7.26175979e-02 -6.85670227e-03  4.31687161e-02 -2.42370591e-02
   4.10566032e-02 -3.17113884e-02 -7.29774460e-02 -3.10660712e-02
  -5.70896976e-02  3.46916318e-02  1.22113824e-02  3.41324508e-02
  -6.79982007e-02  3.89799178e-02  4.82333526e-02  2.16795504e-02
  -6.66412711e-02 -1.77730992e-02 -5.34021333e-02 -4.39165235e-02
   3.92118841e-02  3.94077823e-02 -4.21190895e-02 -7.15749338e-02
  -5.28945029e-03  5.73260561e-02  2.58764252e-02 -8.04377198e-02
  -4.08782475e-02 -8.02053437e-02 -7.46622756e-02  7.74357989e-02
  -3.31502929e-02 -1.34091005e-02  6.60170540e-02 -5.44476584e-02
   5.84034398e-02  6.57278523e-02 -2.80673802e-03  4.38409150e-02
  -9.13688540e-03  5.96168637e-03  3.50218564e-02  1.43183023e-03
  -6.48420900e-02  3.38702425e-02  3.14961895e-02  2.26772875e-02
  -1.48210675e-02 -1.87302642e-02 -2.70870216e-02  2.51077265e-02
  -4.37062010e-02  6.39930293e-02  6.27354756e-02  2.62032002e-02]
 [-1.50764883e-02 -5.25594689e-02 -6.79336861e-02  3.45473513e-02
   4.08352017e-02 -7.79143572e-02 -7.23888278e-02  2.10844129e-02
   6.03556857e-02 -1.51985660e-02  3.06902677e-02  6.08992055e-02
  -3.15035023e-02 -6.62782937e-02 -2.88155563e-02 -3.27667780e-02
  -2.13810056e-03 -6.97000101e-02  8.09010118e-03 -6.31666183e-02
   4.73099574e-02  4.63990793e-02 -4.61637974e-05  4.74617258e-02
  -4.47011553e-02 -8.09819698e-02 -3.53381522e-02  7.49559626e-02
  -7.28548765e-02  1.36987120e-02 -1.25281438e-02  7.99113289e-02
   5.56641594e-02 -5.40326610e-02 -6.86393976e-02 -3.49979326e-02
  -3.43149230e-02 -4.02012877e-02  2.87110507e-02  5.69974557e-02
  -3.41855325e-02  5.02659008e-02 -7.39492178e-02 -3.32259275e-02
   6.49594143e-02 -7.83907026e-02  1.83303654e-02  6.24823347e-02
   4.48775217e-02 -7.54394606e-02 -4.00473960e-02  1.22049451e-02
   7.35275075e-02 -5.95963858e-02 -4.56353314e-02  1.01376995e-02
  -3.46574448e-02 -3.35758515e-02  3.34656984e-02  1.63683593e-02
  -3.41907926e-02 -1.90058537e-02  5.33498302e-02 -6.97213411e-03
   4.63089868e-02  6.30688891e-02  2.44283751e-02 -3.89966890e-02
  -5.40597513e-02 -9.06741619e-03  7.41067007e-02  5.27379736e-02
  -2.47165114e-02  7.55103901e-02 -1.01644844e-02 -7.61883780e-02
   4.44185063e-02  5.65321520e-02 -7.02914894e-02 -6.13542944e-02
   4.37228680e-02  7.33658895e-02  3.61740291e-02 -7.68877864e-02
  -3.79234292e-02  8.00753906e-02  1.27955526e-02  7.50681683e-02
  -1.55636668e-03 -1.40606090e-02 -7.18252137e-02 -2.71115601e-02
  -8.66895169e-03 -6.50817156e-03 -8.90810788e-03 -6.39429390e-02
  -2.15742700e-02 -7.39446506e-02  5.47453985e-02 -7.66162723e-02
   5.34135178e-02 -3.16013359e-02  2.78306156e-02 -1.88882388e-02
  -4.71861660e-02 -6.01224601e-04  5.58503047e-02  3.30250412e-02
   3.82210687e-02 -3.59700508e-02  2.80064419e-02  5.96772954e-02
   5.23318723e-02 -2.82704830e-03  6.46115467e-02  5.77856079e-02
  -3.88836563e-02  1.48470923e-02 -3.30319628e-02  4.95740995e-02
   1.20529234e-02  5.84075823e-02  1.06511265e-02 -5.23652546e-02
  -2.25472972e-02 -3.13552544e-02 -3.50029022e-02 -2.33369768e-02]
 [ 5.10604009e-02  7.25713000e-02  7.96822533e-02 -4.11204770e-02
   2.19330341e-02 -1.26235560e-02  1.24054626e-02  5.95260784e-02
   7.93496296e-02 -5.04504889e-02 -7.55022168e-02  7.66156539e-02
  -5.83461262e-02  6.64721802e-02 -4.90289144e-02  1.23556107e-02
  -6.77566081e-02  3.84868905e-02  7.39819929e-02  9.39242542e-04
   1.98827311e-02 -8.04935247e-02 -4.46413048e-02  4.35150787e-02
   3.74801755e-02  6.87417760e-02  7.55820796e-02 -7.39005357e-02
   1.31569505e-02  6.02330267e-03 -1.53920501e-02  4.72665057e-02
  -3.33020613e-02 -4.10564467e-02  5.59547469e-02  5.35591468e-02
  -7.13291243e-02 -3.14487740e-02  2.16857344e-02 -6.54871762e-02
   1.36538669e-02 -7.85902515e-02 -2.86162645e-03  7.69842640e-02
  -3.09710205e-02  4.54437509e-02 -3.00926007e-02  3.85987014e-02
  -2.91737989e-02  4.44771349e-03 -5.62395081e-02 -3.80985588e-02
  -3.50698121e-02 -4.65372503e-02 -5.37704714e-02  5.54946736e-02
   2.32818797e-02  3.07616442e-02  6.88464120e-02 -2.13050619e-02
   1.05531067e-02  5.62538728e-02 -7.52065107e-02 -3.23330760e-02
   2.37955302e-02  6.32470921e-02 -6.03955388e-02 -8.00506398e-02
   1.34269297e-02  5.78524917e-03  5.72349504e-02  3.24043930e-02
   1.37581527e-02 -2.77121328e-02 -6.88941404e-02 -1.06271282e-02
   7.63608888e-02  5.19824401e-02 -1.63914710e-02  7.10979030e-02
   7.90284798e-02 -3.06522287e-02 -6.71884641e-02  3.57000679e-02
   7.58799911e-03 -6.92378655e-02 -7.08821192e-02 -4.26419079e-03
  -7.90495947e-02  2.47748941e-02 -5.32798022e-02 -3.16078328e-02
   6.70007244e-02  2.78252438e-02  5.77126816e-02  3.01310644e-02
  -2.69240960e-02  5.13498262e-02  3.78392637e-04 -5.76311499e-02
  -5.48062511e-02  7.80939087e-02 -6.54522553e-02  3.17984670e-02
   1.62878633e-03  5.18999919e-02  2.91586593e-02  6.98749647e-02
  -3.00291702e-02 -3.99084501e-02  5.47368824e-03  1.19258910e-02
  -4.86677513e-02  5.79771921e-02  6.78816810e-02 -2.37909444e-02
   7.86813125e-02 -3.86274233e-02 -5.84074669e-02 -5.98341674e-02
  -7.43544102e-02 -2.30467655e-02  4.21651155e-02  4.78658304e-02
   1.00518391e-02 -7.51919299e-03  6.00501969e-02  5.41587695e-02]
 [-1.38625652e-02 -4.18808386e-02 -2.87624449e-03 -6.29542693e-02
  -6.37066662e-02 -6.21283129e-02 -8.07064399e-02 -7.65153840e-02
  -7.96809867e-02  4.81243059e-02  5.74112907e-02  6.97976127e-02
   6.90586790e-02 -3.83647494e-02  5.28497025e-02 -7.76302963e-02
   1.37761980e-02 -8.02011862e-02 -2.29553133e-03 -1.27526447e-02
  -1.72087476e-02 -4.20699492e-02 -1.56514943e-02 -2.40629949e-02
   1.67739615e-02 -5.09704798e-02  4.36199158e-02 -4.47721109e-02
   4.49255630e-02  4.43305448e-02  9.91474837e-03 -6.68576658e-02
  -7.72837922e-02 -5.13152406e-02  3.68652940e-02  1.61513686e-02
   5.81693426e-02 -3.36249135e-02  6.62633553e-02  2.62903795e-02
  -5.62329739e-02  1.90071091e-02 -3.27709354e-02 -2.06865855e-02
  -6.79952577e-02  4.37933952e-02  3.96065414e-02 -2.65431702e-02
   3.97119373e-02 -1.55278444e-02  7.30754659e-02 -7.73932487e-02
   4.50913981e-02 -3.23444679e-02  5.81879541e-02  7.15364143e-02
   3.23491469e-02 -3.46933529e-02 -3.18387523e-02 -7.51167238e-02
  -3.81461307e-02  3.63478214e-02 -7.86425397e-02 -7.12265521e-02
   2.64893547e-02 -9.25467163e-03 -3.49354297e-02  7.81104043e-02
  -3.80434655e-02  1.86667219e-02 -8.00662488e-02  2.41272971e-02
  -2.72676423e-02  6.44490644e-02  6.03391901e-02 -3.70734371e-02
   4.51205149e-02  3.77289876e-02  1.15012974e-02  4.69702706e-02
  -2.96992213e-02  4.42407653e-02  6.47846386e-02 -2.99020968e-02
   6.26575425e-02 -5.37103117e-02 -6.35015443e-02  2.77348906e-02
   4.58655283e-02  2.05688179e-03  3.42030153e-02  4.33943123e-02
  -7.88998008e-02 -7.64238089e-03  1.05033815e-02 -2.50808150e-03
   8.06551352e-02 -1.77721903e-02 -5.23946881e-02  2.94026658e-02
   3.65251973e-02 -3.52370888e-02  2.58288905e-02 -3.26752104e-02
   2.41858289e-02  3.16147730e-02  3.37486193e-02 -3.00600156e-02
  -7.95851126e-02  4.35900688e-03  4.46144417e-02  5.36099598e-02
   5.95540926e-02  4.83703688e-02 -2.25012898e-02 -2.60342062e-02
  -6.69086426e-02  8.08706805e-02 -3.54873277e-02 -7.01407492e-02
  -5.25366664e-02 -3.64729054e-02  6.21854141e-02  1.42111927e-02
   5.91670051e-02 -6.48345500e-02  6.65968657e-03 -5.81213012e-02]
 [-2.95508951e-02  7.03927502e-02  4.39959690e-02  5.11892363e-02
   1.41797289e-02  2.89276764e-02 -2.58687846e-02  6.49056211e-02
  -4.65930440e-02  7.18710944e-02 -2.00455971e-02 -3.08743902e-02
   5.34589663e-02  3.92842293e-02  5.64578548e-02  5.57851791e-03
  -7.26873726e-02  4.05768007e-02 -8.10758024e-02  3.92164066e-02
   3.02583650e-02 -5.77507168e-03  2.57795975e-02 -3.85574177e-02
  -6.86640963e-02 -5.56850806e-02 -3.88553441e-02 -1.29905641e-02
  -5.97324967e-03 -4.06980328e-02  4.71100733e-02 -7.44795874e-02
   3.43448594e-02 -4.76239100e-02  3.21157500e-02 -6.38974532e-02
  -2.43110284e-02  3.88795361e-02 -4.52748463e-02 -4.61990051e-02
   6.09424636e-02 -5.29938936e-03 -2.02151760e-02  1.71522051e-02
  -4.20202687e-02  6.31431267e-02  5.09364903e-03  3.83545756e-02
   4.21464443e-03 -7.77956024e-02  1.01720393e-02 -5.78746796e-02
   5.98916635e-02  4.27456498e-02 -7.40646794e-02 -7.73275197e-02
  -3.48384492e-02  2.28399262e-02 -7.83438832e-02 -9.74532217e-03
   9.80153680e-03 -4.94529456e-02  7.90238008e-02  7.10257515e-02
   3.72923613e-02 -2.20663361e-02  2.48126462e-02 -2.56072544e-02
   4.49810252e-02  3.12819034e-02  4.81165871e-02 -4.42912430e-02
  -5.81679232e-02 -1.95710734e-02 -3.72184329e-02 -5.00546172e-02
  -6.43610731e-02  5.16423583e-03 -1.31140202e-02  3.03492546e-02
   1.58697814e-02  7.79421702e-02  5.85330054e-02 -7.88093507e-02
  -4.90261689e-02  1.45191774e-02 -1.51704922e-02 -2.84265466e-02
  -4.99446988e-02  2.77483687e-02 -3.66143882e-03  7.43977502e-02
   7.44070038e-02  6.95236400e-02 -6.16632253e-02 -9.11936164e-03
  -4.45079692e-02  3.63547504e-02 -4.26933952e-02 -1.78384408e-02
  -4.44827117e-02  1.78334340e-02 -2.10738927e-03 -3.63290831e-02
   2.08498612e-02  7.25118816e-03  5.72433248e-02  4.08430696e-02
  -3.10893320e-02 -5.26381359e-02 -5.29099181e-02 -2.74118260e-02
  -3.88188697e-02 -3.10434438e-02  8.09060261e-02  6.47813827e-03
  -6.91429898e-02 -3.71498987e-02  7.89036825e-02  5.67295626e-02
   6.34816661e-02 -7.39158392e-02  2.32929215e-02  7.66922608e-02
   3.98122221e-02  7.89824873e-03 -7.98100159e-02  5.57494238e-02]
 [ 6.14660308e-02  6.24653772e-02 -5.55518195e-02 -6.64924979e-02
  -3.72261517e-02  9.83791798e-03  7.01930597e-02  3.43859717e-02
   8.04526284e-02  5.84293529e-02  1.61215290e-02 -1.60271600e-02
  -2.43442878e-02 -4.86513153e-02 -5.08838817e-02  2.55941823e-02
   3.25678661e-02  5.28570637e-02  2.23013908e-02 -1.40388682e-02
   5.57268336e-02  6.83588907e-02 -1.78214237e-02 -3.81291322e-02
  -3.87189537e-03 -3.16275954e-02  5.17417267e-02  1.44003257e-02
   2.65663862e-03  1.73913389e-02 -6.92187399e-02  3.38156670e-02
  -6.27987534e-02  5.54773435e-02 -1.89035758e-02 -5.24573438e-02
  -1.44891217e-02  7.05458894e-02 -2.19852291e-02  4.00873646e-02
   1.35448575e-02 -7.55741522e-02  7.28860125e-02 -6.84913471e-02
   7.99642727e-02 -6.57273978e-02 -5.26188947e-02  1.96511149e-02
  -4.69425619e-02  3.09185982e-02 -2.78091729e-02  5.45235202e-02
   1.50675923e-02  5.24705723e-02 -2.78509222e-02 -1.82178020e-02
  -5.22096753e-02 -6.32897764e-03  4.66748253e-02  1.84524283e-02
  -3.23831998e-02 -4.36782204e-02 -1.82907432e-02 -7.40919337e-02
   6.37318417e-02  3.54210287e-03  2.60790288e-02  1.09792799e-02
   2.83722058e-02 -4.24095280e-02  4.48191538e-02  6.29876629e-02
   2.09992081e-02  6.67503253e-02 -2.44836994e-02 -4.00083140e-02
   1.27270222e-02  7.50370249e-02  1.55408755e-02 -3.95997316e-02
  -7.57552385e-02  2.40543485e-03  3.98577601e-02  7.73735344e-03
   3.92537713e-02 -6.76983595e-02 -2.34736800e-02 -5.49230538e-02
   6.84201941e-02  6.61281422e-02 -6.01657629e-02 -4.36051786e-02
   4.68691513e-02  7.67867193e-02 -5.93416393e-04  2.68133283e-02
   1.11860111e-02 -9.20489430e-03  6.58565238e-02 -4.74892370e-02
   3.12531888e-02  9.14338231e-03  3.34253013e-02  1.97687298e-02
   8.18619132e-03  7.14653060e-02  2.49005780e-02 -5.60227036e-03
  -5.56222685e-02  7.40712807e-02  5.31592444e-02  2.52485126e-02
   5.50904050e-02  4.15691808e-02  3.85060906e-04  2.23674625e-03
   4.89552543e-02 -7.80123249e-02  7.94945434e-02  3.63144055e-02
   6.63763955e-02 -4.03612182e-02 -5.87538555e-02  3.26435119e-02
   6.27551228e-03  2.70444378e-02  5.13219014e-02 -6.68126866e-02]
 [-4.76057306e-02  3.86139229e-02 -4.82447259e-02  2.40763202e-02
  -8.03352222e-02 -3.94986123e-02 -7.64589757e-03  1.00940913e-02
  -1.46143436e-02  5.73569909e-02 -3.71351093e-03  7.36531094e-02
  -4.75195609e-02 -3.22608873e-02  3.17030698e-02  5.59453294e-02
  -1.60203502e-02 -4.17335592e-02 -7.09812343e-03 -3.58460844e-03
   5.04304394e-02 -1.33562833e-02  7.10068569e-02 -3.43559608e-02
   1.04270130e-03  7.60557875e-02  4.36604246e-02  6.08299598e-02
   7.56360367e-02 -2.96296030e-02  1.53508186e-02 -1.03668347e-02
   5.76972887e-02  7.24130347e-02 -4.85396534e-02  3.11712101e-02
  -5.08486666e-02 -7.35012069e-02  1.00366920e-02 -7.24484250e-02
   5.12191877e-02 -6.38491660e-02  7.38022104e-02  4.50149551e-02
   7.67384693e-02  3.11262086e-02 -6.29100651e-02 -2.16480866e-02
   2.53328085e-02 -1.04285628e-02  4.88064215e-02 -2.58618630e-02
  -3.39127071e-02  3.54712605e-02 -9.16536897e-03 -5.27646467e-02
  -3.75569500e-02 -4.45553847e-02 -3.62799466e-02 -5.01569547e-02
  -3.06494646e-02  1.04078501e-02  7.26582482e-02 -1.83255523e-02
  -6.75648898e-02 -5.74322194e-02 -8.10173601e-02  8.04137364e-02
  -2.13238001e-02 -2.00214833e-02  1.71066821e-02  4.76184413e-02
  -4.20317575e-02  6.54513463e-02 -7.99268484e-04  6.31554499e-02
  -2.70584971e-02 -3.10806111e-02  5.60352579e-02  1.50579587e-02
  -4.75636870e-03 -5.91354594e-02 -4.38337177e-02  4.19547483e-02
   4.98181060e-02  2.68246606e-02 -7.99300298e-02 -1.08111128e-02
   4.26283777e-02  7.76702836e-02 -7.90369436e-02 -6.78279251e-02
  -3.89100723e-02  2.34854221e-03 -5.84227070e-02 -1.56672522e-02
   6.93227723e-02 -4.93688993e-02  4.82359007e-02  4.40647081e-02
   7.87198544e-03  5.85088208e-02 -6.25490695e-02  3.32110897e-02
  -5.01944125e-02  5.24297133e-02  5.75044677e-02 -1.15871429e-03
  -5.93155175e-02  7.79684708e-02 -7.69865811e-02  7.71913901e-02
  -7.80616030e-02 -1.52103454e-02  7.89157525e-02  2.75564194e-02
  -6.32058978e-02 -1.22596473e-02 -1.25272125e-02 -4.67757508e-02
  -7.99067989e-02  9.39818472e-03 -7.56799132e-02  4.02439907e-02
   7.49707595e-02 -3.68654728e-02 -2.45709345e-02  7.25132897e-02]
 [-4.94975373e-02  5.26117757e-02 -3.92322876e-02 -2.40301192e-02
   7.14594871e-03 -6.83557466e-02 -3.83720212e-02  4.54161689e-02
  -3.02910879e-02 -1.11972243e-02  5.74485138e-02 -5.81558198e-02
   4.76806834e-02  3.87733877e-02 -1.45613402e-03 -4.64434586e-02
   6.16217777e-02  2.52194032e-02 -7.80058652e-02 -7.82970265e-02
  -2.58334354e-02 -5.64992204e-02 -4.68599312e-02 -3.10252644e-02
   2.44201124e-02  2.64783278e-02 -1.85189918e-02  8.07567686e-03
   2.05131173e-02  7.32390657e-02 -4.18411195e-03  7.27259144e-02
   7.31879473e-03 -1.96991339e-02  5.51502928e-02 -7.17749521e-02
  -3.61361466e-02  7.50555173e-02 -1.88745856e-02  3.94949615e-02
  -2.21551210e-03 -5.77567331e-02 -2.75664739e-02 -9.79097933e-03
   1.22363493e-02 -4.02079411e-02  7.56614432e-02 -4.32803147e-02
   2.13148445e-03 -1.94009542e-02  4.09246758e-02  3.89754698e-02
   6.82083443e-02  6.26878515e-02 -7.12629110e-02  6.39691949e-04
   7.61490092e-02  2.42498219e-02  5.55183962e-02 -7.09744841e-02
  -4.04892378e-02 -4.87177409e-02 -3.07241119e-02 -6.63601309e-02
  -1.34283304e-03  5.46893105e-02  3.81187275e-02  4.92700264e-02
  -2.77397074e-02 -7.54897967e-02  6.49495944e-02  3.15274447e-02
  -4.01739255e-02  8.49964470e-03 -4.61933762e-02 -7.66859502e-02
  -7.66015351e-02 -6.70444369e-02 -3.63216773e-02 -6.11513853e-04
   1.66487470e-02 -6.58371821e-02 -5.67668825e-02  4.46690992e-02
   7.89608434e-02 -7.61856660e-02 -1.13069266e-03  1.75982788e-02
  -6.64805099e-02  2.41436511e-02 -7.79575035e-02  6.67077526e-02
   5.48257753e-02 -6.99368417e-02 -2.39487439e-02 -1.13270804e-02
   7.65836462e-02  6.01755306e-02  7.58434832e-03  3.57513726e-02
  -6.35786057e-02  7.89199844e-02  7.68341199e-02 -7.34171197e-02
  -2.01581083e-02  2.33098119e-03 -6.67138398e-03 -6.13342226e-02
   9.70622152e-03  7.50607476e-02 -5.99581674e-02 -8.00000504e-02
  -5.62203228e-02  5.32085374e-02  6.37036487e-02  2.43228078e-02
  -1.43645257e-02  7.55721852e-02 -3.85252759e-02  2.21925974e-03
   2.18392462e-02 -2.05095038e-02  1.44463480e-02 -6.77407682e-02
   3.74280065e-02  7.74834678e-02 -4.33531031e-02 -3.98346744e-02]
 [ 6.04952797e-02  3.98837365e-02 -3.92759182e-02 -8.23567435e-02
  -1.03482842e-01  1.84658375e-02 -6.09345958e-02 -4.10497449e-02
  -1.05253831e-02 -7.25420266e-02  4.97799292e-02  9.50289294e-02
   1.09056123e-01 -3.92795280e-02  8.88326839e-02 -2.69965399e-02
  -9.76918340e-02  5.64131066e-02  4.76964973e-02 -8.38198047e-03
   2.09219437e-02  6.36296272e-02  1.48251876e-02 -3.20828259e-02
  -9.58816111e-02  5.20233549e-02 -1.64254773e-02 -5.36844246e-02
  -2.84552071e-02 -1.13553479e-01  9.31960903e-03  2.57079639e-02
   6.71486706e-02  4.88863364e-02 -1.83294117e-02  7.92314485e-02
  -7.14707971e-02 -3.24953161e-02 -1.08598862e-02 -3.98686230e-02
   8.38697851e-02 -7.71096349e-02  1.48689464e-01 -5.63880019e-02
  -4.33410630e-02 -6.13076575e-02  3.39598246e-02  5.18459380e-02
  -9.04565677e-03  3.37782167e-02  5.56577817e-02  4.83223721e-02
   1.00642242e-01 -3.48611251e-02  5.41197620e-02 -3.67666706e-02
  -5.11762798e-02  3.87129933e-02  1.84076559e-02  1.25298863e-02
   2.56430614e-03  5.31328097e-02  1.26123801e-02  1.69609394e-02
   4.76419926e-03  8.85627046e-02 -1.71063282e-02  1.08828269e-01
  -5.62510118e-02  9.00750086e-02  4.10141721e-02  2.02677697e-02
  -7.69497007e-02  8.02750066e-02  5.72263226e-02 -1.95473637e-02
   1.37717128e-02  3.32943574e-02 -3.19424644e-02  5.25706932e-02
  -6.14226758e-02  7.50496760e-02  1.41535550e-01  5.09463847e-02
  -3.94449271e-02 -1.95497610e-02 -1.65412519e-02 -2.94307303e-02
  -2.38577798e-02 -8.72055739e-02  2.05876045e-02  5.81162497e-02
   8.09429884e-02 -1.47787202e-02  8.27594101e-02 -1.32802618e-03
   2.38057412e-02  4.43129465e-02 -7.90519342e-02 -4.34787124e-02
  -3.22979018e-02 -9.62292925e-02  5.39320568e-03 -5.44775389e-02
  -3.60185956e-03  5.50359376e-02  4.92169298e-02 -6.34618476e-02
  -2.46299226e-02 -1.05161611e-02 -3.76204848e-02  3.56142670e-02
  -7.94243142e-02  8.41918141e-02  4.44477648e-02  1.42108887e-01
  -4.66357060e-02  8.34361613e-02 -8.74999631e-03 -6.45192564e-02
  -4.87580784e-02  1.02684330e-02 -3.43864374e-02  3.12387198e-03
   6.78071193e-03 -2.03800183e-02 -7.49401450e-02 -1.77547149e-03]
 [ 1.31655425e-01 -6.62575886e-02 -3.55012715e-03 -5.07040694e-02
   3.52916718e-02  9.80166420e-02  2.34220773e-02  5.35042724e-03
   1.22390673e-01  9.13964063e-02  5.28747924e-02  1.47129074e-01
   9.48489308e-02 -5.56681603e-02  1.50888592e-01 -1.18998393e-01
  -2.02669315e-02 -5.41092977e-02  4.19271439e-02 -7.57672191e-02
  -2.30057873e-02  1.04385443e-01 -3.81946489e-02  6.33774623e-02
  -1.47223428e-01  1.00311711e-01 -2.18212828e-02 -7.72989169e-02
   3.00662145e-02 -4.01327014e-02 -5.06664664e-02 -3.18686031e-02
   1.57750547e-02  7.19463900e-02 -4.69591096e-02 -7.33267516e-03
   7.59450048e-02 -9.78196487e-02  1.15990028e-01 -5.55369817e-03
   8.54013562e-02 -7.45659247e-02  1.11436591e-01  1.88686457e-02
  -2.84842476e-02  3.06952726e-02 -3.19797359e-02 -1.64354537e-02
  -3.15984748e-02  4.36290316e-02  1.16945341e-01 -2.84993462e-02
   2.90163583e-03 -9.06880200e-02 -7.89941922e-02 -6.52254745e-02
   8.17528367e-03  7.49378279e-02  1.14156000e-01 -2.30272636e-02
   4.53702100e-02 -4.86621261e-03 -3.57486270e-02 -3.95636372e-02
   1.57259852e-02  1.22641370e-01  1.09165095e-01  1.44663811e-01
  -8.68633613e-02  6.51074499e-02 -7.35237896e-02  1.22969626e-02
  -5.80840707e-02 -5.44073358e-02  1.59855321e-01 -9.93074924e-02
   4.10923362e-03  6.88466728e-02 -5.59209883e-02  3.66285779e-02
   4.24068160e-02 -7.53575042e-02  1.90553791e-03 -1.14274405e-01
  -5.62606640e-02 -7.31920898e-02  1.59676317e-02 -7.26953149e-02
   7.36360773e-02 -1.62646994e-01 -4.24312875e-02  1.45811364e-02
   1.82365045e-01  5.30431746e-04  3.31878066e-02 -8.15830156e-02
   1.24353021e-01  4.99159023e-02 -3.47122662e-02 -1.61350310e-01
   8.23625773e-02 -3.12605686e-02 -2.61699017e-02 -6.76669627e-02
   7.55508468e-02 -1.06497303e-01  1.38516843e-01 -9.90506634e-02
  -8.14973935e-03 -7.07212463e-02 -7.65960589e-02  1.76564883e-02
   4.42349240e-02  1.51626021e-01 -9.40171033e-02  1.51187927e-01
   1.24203056e-01  2.80234460e-02 -6.89413399e-03  6.84191659e-03
  -7.04885181e-03 -1.04247279e-01  7.12046400e-02  2.01329514e-02
   8.38949904e-02 -5.43907508e-02 -8.65030810e-02 -5.47597781e-02]
 [ 7.18406737e-02 -3.62687297e-02  3.35224383e-02  8.72221887e-02
   3.69029157e-02  9.49178711e-02  7.25268200e-02  3.83118093e-02
  -2.58299001e-02  5.61706014e-02  2.78026536e-02  9.19502601e-02
   6.36614189e-02 -7.28310570e-02  1.70905337e-01 -1.34617195e-01
   1.04698792e-01 -1.87555388e-01 -4.42752056e-02 -2.29145978e-02
   4.11947854e-02 -4.65434827e-02  7.53492340e-02 -6.37603700e-02
   2.15078928e-02  1.49401231e-02 -7.73574337e-02 -7.19456468e-03
   1.47417977e-01  4.32769768e-02  1.77481458e-01  1.64976958e-02
   5.06431907e-02  3.03060710e-02  2.26550307e-02  2.21074075e-02
   6.90922812e-02 -5.59830442e-02 -1.85863934e-02  6.69536963e-02
   6.27106347e-04  5.76070845e-02 -4.06869277e-02  9.03627556e-03
  -3.44529040e-02 -7.20003992e-02 -5.49522787e-02 -1.71189811e-02
  -3.36374268e-02  4.58636694e-02  1.94041040e-02 -2.94703394e-02
  -1.39831863e-02  1.12400956e-01  1.42662507e-02 -4.87496704e-02
  -7.32881352e-02 -2.29109749e-02  9.65965763e-02  6.63688853e-02
   1.32035017e-01  6.39135465e-02  4.00114655e-02 -8.89696926e-03
  -4.00941744e-02  6.44450486e-02  1.49576575e-01  1.09076530e-01
  -3.50499153e-02 -2.16678735e-02 -6.77382946e-02  5.22199720e-02
   9.80622321e-02  3.85782868e-02  1.42004360e-02  2.20112433e-03
  -1.20275319e-02 -1.18850112e-01  1.31927188e-02  1.14004329e-01
  -8.90852064e-02  4.70119640e-02 -1.86082777e-02 -1.22970164e-01
  -2.08039656e-02 -1.41656280e-01 -4.96042892e-02 -6.47295490e-02
   9.44382399e-02 -1.27828658e-01 -7.01631233e-02  3.41529623e-02
   9.65647921e-02  7.84726664e-02 -1.59697309e-01 -2.05234662e-02
   7.08552077e-02  4.03219238e-02  7.21636191e-02 -1.95781253e-02
   7.98591301e-02  6.11610934e-02  2.69712768e-02  8.90581682e-02
   7.46686608e-02 -1.72358707e-01  9.95260477e-02  6.26114383e-02
  -7.67399594e-02 -2.09517181e-02 -5.05079925e-02  8.83745477e-02
   9.90484655e-03  4.77626771e-02 -7.44696259e-02 -7.14477450e-02
   1.52741328e-01  7.64690638e-02 -5.91422841e-02  3.85578163e-02
  -9.72738117e-03 -8.06626752e-02  7.78673664e-02 -5.85689023e-02
  -3.73807736e-02  1.26994580e-01  1.15616694e-02 -7.44711086e-02]
 [-4.79764454e-02  3.75707224e-02 -3.86943072e-02 -1.07964212e-02
  -6.22256063e-02  2.77100448e-02  5.05337268e-02  5.39280884e-02
   1.64696872e-02 -2.83612031e-02  7.79701546e-02  7.39280134e-03
  -4.82296050e-02 -5.09950779e-02 -2.68764514e-02  3.62794101e-02
  -5.61502092e-02  5.17871492e-02 -7.53013417e-04 -3.22537161e-02
  -1.58034321e-02 -1.54107381e-02  4.29221094e-02  5.11010513e-02
   5.13022989e-02 -5.07022850e-02  4.73733358e-02 -1.26148136e-02
   6.92728162e-02  5.05997725e-02  1.87436119e-03  5.21951281e-02
   7.35659376e-02 -7.48774931e-02  6.78439885e-02  2.09329203e-02
  -7.02735484e-02  2.59264950e-02  2.27232408e-02  6.98354170e-02
   6.87185079e-02 -4.08284366e-02  3.97736989e-02 -6.76787633e-04
   4.27660346e-03  7.29953572e-02  7.23115206e-02 -6.88650683e-02
   4.44395579e-02  7.69504905e-02  1.16303517e-02  5.69556765e-02
  -6.44162446e-02  8.08596909e-02 -4.06375760e-03  1.02948397e-02
   7.62414858e-02 -9.59259272e-03 -1.76148042e-02 -2.64477544e-02
   6.60557896e-02 -3.42702344e-02 -3.25174481e-02  7.54845068e-02
   6.56448379e-02 -4.48818505e-02  1.59018375e-02 -4.53204848e-02
  -6.18836209e-02  5.55809587e-02  4.15433645e-02  2.94501428e-02
   2.64630630e-03  3.26554850e-02  9.37342718e-02  4.98739779e-02
  -4.18048799e-02 -6.49696961e-02  5.21231033e-02 -3.80974039e-02
   2.21800827e-03 -2.54281834e-02  3.46107222e-02  6.77176267e-02
   2.56041922e-02  2.95919124e-02  4.29310203e-02 -2.47073136e-02
  -5.14319688e-02 -8.37750733e-02  3.47687341e-02  5.40546328e-03
   3.82349119e-02  1.81236828e-03  4.52012010e-02 -2.42920220e-03
   8.03792700e-02 -6.13473915e-02 -1.44158155e-02 -6.47821054e-02
   7.70390257e-02  7.70416856e-03  4.05622125e-02 -3.59361134e-02
   3.39823812e-02  4.03883457e-02 -1.60607547e-02  7.80234411e-02
   5.09798378e-02 -6.29194900e-02 -8.34530741e-02 -5.44548742e-02
  -5.36093265e-02  6.45320714e-02 -6.28911704e-02 -5.48833124e-02
   6.36369064e-02  3.32624209e-03  5.23928329e-02 -4.00170088e-02
   3.12303677e-02  1.78904980e-02  1.12037957e-02 -4.55155298e-02
  -2.05349512e-02  9.55497772e-02  3.67484614e-02 -6.90348670e-02]
 [-7.57276416e-02  3.81276459e-02  6.24638721e-02  4.88421693e-02
  -7.15060160e-02 -5.78909963e-02 -4.31590639e-02  4.69700620e-02
   1.44932643e-02  2.89779231e-02  5.61083928e-02  6.38660863e-02
   4.22110632e-02 -5.59551381e-02  5.84310964e-02 -3.22615653e-02
   5.66998869e-03 -7.48641118e-02 -7.28697106e-02  1.94613338e-02
   5.84410056e-02  5.61195612e-03 -7.19287694e-02 -8.86447728e-04
   3.07360068e-02  7.53320977e-02 -2.85179205e-02  2.67408639e-02
  -4.76906858e-02 -8.02023858e-02 -5.16371280e-02  5.39898500e-02
  -6.21801168e-02  6.71841726e-02  4.42348197e-02 -1.17716268e-02
  -2.15496719e-02  5.46945557e-02  5.31231984e-02 -1.17913559e-02
  -2.15817243e-03 -7.08443373e-02  5.42201027e-02 -2.23909467e-02
  -4.88869138e-02  5.50964251e-02 -6.16738610e-02 -7.01570138e-02
   4.08536941e-03  4.94622216e-02 -7.10686296e-03  6.35310188e-02
   3.61218974e-02  7.01334700e-02  3.83772030e-02 -5.12832552e-02
  -1.75586715e-02  3.90287712e-02 -1.93074755e-02 -6.97688162e-02
  -3.94983627e-02  3.68298292e-02  4.72014621e-02 -4.72568497e-02
  -7.44801685e-02 -5.43663427e-02 -7.33867809e-02  2.33862326e-02
   1.55951604e-02 -9.03162360e-03 -2.33018585e-02  5.77915981e-02
   5.16367182e-02  7.55006894e-02  2.28095651e-02 -3.24871652e-02
   6.56447634e-02  4.30022851e-02  1.94786191e-02  3.49477679e-02
   7.43679330e-02  1.20811164e-02 -6.93042725e-02  4.74513099e-02
   1.02574378e-03  4.21820134e-02  5.18939272e-02 -2.67074108e-02
   2.37589031e-02  4.05979529e-02  2.36797482e-02  3.49896550e-02
   4.69063446e-02 -5.31451702e-02  5.78329191e-02 -7.52158538e-02
  -7.68752545e-02 -1.40320659e-02  6.82806596e-02  9.41338390e-03
   1.89020112e-02  8.04118440e-02  2.28837803e-02 -8.06360319e-02
  -7.37998262e-02 -4.22184467e-02 -1.16954520e-02  8.97748023e-03
  -9.40506905e-03  2.70847008e-02 -6.88851103e-02  5.23290262e-02
   6.68467954e-02 -1.19323507e-02  7.00324699e-02 -4.37158905e-02
  -4.08947207e-02 -7.35225156e-02 -2.37341858e-02 -3.70420106e-02
  -7.20207766e-02 -4.07407880e-02 -6.61140904e-02 -3.74838337e-02
   5.91852143e-02  3.42699587e-02  3.47677618e-03 -4.90784794e-02]
 [-5.22641726e-02  4.62550446e-02  4.83380258e-03 -2.92112753e-02
  -1.38339251e-02  1.44137070e-02  2.77377367e-02 -7.83380568e-02
   2.81482115e-02  1.76026896e-02  7.98247829e-02  1.96160004e-02
   6.58808276e-02  3.23085189e-02  6.80052489e-03 -6.44834638e-02
  -5.68865463e-02  3.92673910e-03  1.45985633e-02  5.87713495e-02
  -7.01711327e-03 -7.11868554e-02  7.78988525e-02 -3.64584960e-02
   2.17430294e-03  3.17683369e-02  3.12356055e-02  6.22811392e-02
   8.34621489e-03  5.59095293e-03  5.53506240e-02  2.68891454e-03
  -4.21478637e-02  5.17498180e-02 -5.21038771e-02  4.74653915e-02
  -1.57032609e-02 -8.57944041e-03 -7.27660358e-02 -6.29040673e-02
  -6.79742619e-02 -4.56238054e-02  3.92372757e-02 -2.38578767e-03
   1.99345201e-02 -6.38321713e-02 -1.13408118e-02  3.01308706e-02
  -2.05620378e-03  4.07556221e-02  4.41428944e-02  9.30234045e-03
  -5.31574860e-02 -5.44873253e-02 -7.46286809e-02  5.09838760e-03
   4.89988253e-02 -1.82004720e-02  4.11220044e-02  7.50054345e-02
  -6.15794957e-03  7.54647776e-02 -7.11647421e-03 -6.64090738e-02
   3.88464257e-02  4.03828397e-02 -1.92470998e-02  3.71018276e-02
   3.08877155e-02 -4.36617993e-02 -6.87565729e-02  4.87256125e-02
  -6.86518177e-02  2.89359391e-02  4.66537103e-02  3.37807983e-02
   6.20898083e-02 -7.98407272e-02  3.86773124e-02 -7.62901306e-02
  -6.62946478e-02  6.99973106e-03 -1.45712569e-02  3.83229777e-02
  -6.68079704e-02 -6.98847324e-02  5.37187681e-02 -3.50880511e-02
  -7.00569153e-02 -4.35524434e-02 -1.28967538e-02  3.12719420e-02
  -4.91062663e-02 -7.14418665e-02 -8.16946477e-03 -1.22754723e-02
  -2.68830620e-02  1.46627054e-02 -7.29471445e-03  3.71948183e-02
   5.62226698e-02 -5.00938371e-02 -7.39033818e-02 -1.47382990e-02
  -5.04675098e-02  5.53929135e-02  1.62067339e-02 -5.01079522e-02
   2.75894105e-02 -1.28237680e-02  1.84786543e-02 -7.51112700e-02
   8.67989659e-03 -7.11171776e-02 -7.49205574e-02  3.59968916e-02
   2.83380002e-02 -2.39237770e-02 -2.27983855e-02  5.60633615e-02
  -6.74575567e-04  3.65095660e-02 -5.95619529e-03  5.15550300e-02
   2.09843740e-02 -6.75021335e-02 -1.86894834e-03 -2.63163894e-02]
 [ 3.55625376e-02  3.90886813e-02 -4.20007557e-02 -1.70221701e-02
  -2.18632817e-03 -7.68068954e-02  2.84882188e-02 -6.95704222e-02
   7.07708672e-02  2.43844166e-02  7.40810856e-02 -6.00638688e-02
  -3.49073708e-02 -6.05400354e-02 -3.74306142e-02 -4.43009324e-02
   1.93907470e-02  3.75447497e-02  2.76218578e-02  3.59224752e-02
   2.16367543e-02 -9.67153162e-03  5.48460707e-02 -1.53099597e-02
  -2.71563120e-02  3.87712196e-02 -2.48945802e-02 -3.88720520e-02
  -2.67134048e-02  2.19343528e-02 -1.40246004e-02  3.62558663e-02
   2.10480988e-02  2.35099792e-02  4.26154211e-02 -4.84204926e-02
  -6.39500171e-02  1.76041201e-02 -1.56613141e-02  5.21208420e-02
  -1.90856643e-02 -5.61415404e-02  3.41264755e-02 -7.29819685e-02
  -5.45676723e-02  2.84508318e-02  5.20101860e-02  8.57137144e-03
  -7.33917281e-02  7.11262152e-02 -5.36342338e-02  8.02327618e-02
  -1.19942501e-02  3.85027304e-02  1.93546787e-02  1.43727884e-02
   2.94584781e-02  1.74707249e-02 -2.87840553e-02  3.44127789e-02
  -4.15617786e-02  3.91766503e-02 -5.96330911e-02 -1.51146576e-02
   7.10023120e-02  3.77315953e-02 -3.73173691e-02  5.68621829e-02
  -6.79924935e-02  1.38719231e-02 -4.45784628e-03 -5.15800044e-02
   2.11928412e-02  7.26114884e-02 -8.10846984e-02 -1.48655623e-02
  -6.75290897e-02  6.96493760e-02  1.20526329e-02 -3.26608010e-02
  -5.95574975e-02 -2.78509222e-02 -6.21167272e-02 -4.55172323e-02
   5.99789992e-02 -5.42003624e-02  3.30026299e-02 -6.32074848e-02
   7.62406513e-02  1.64273456e-02  6.65772483e-02  7.10246190e-02
   6.50811717e-02  2.59889960e-02  7.00286403e-02  1.40092447e-02
   4.59513590e-02 -2.23150626e-02 -2.75658779e-02 -8.00848529e-02
   4.95082960e-02  4.47239056e-02  5.71996495e-02  4.21220884e-02
   1.07299164e-02 -7.32307360e-02  7.74851516e-02 -5.54457083e-02
   7.52692893e-02  6.89286068e-02  3.12867388e-02 -2.54280865e-02
  -3.32266204e-02  5.78941330e-02  2.30595320e-02 -1.36534423e-02
   5.47514036e-02  2.42291316e-02  4.44863513e-02 -6.48371056e-02
  -6.12770990e-02 -6.13564402e-02  3.00011113e-02  1.11244693e-02
  -6.89721704e-02  3.02783847e-02 -4.46810648e-02 -3.16180624e-02]
 [ 3.46619636e-03  1.07835606e-02 -1.36548728e-02 -2.96454988e-02
  -5.23816794e-03  1.96708590e-02  3.62722725e-02  9.32871550e-03
   3.95628959e-02 -8.10126215e-02 -4.13817950e-02  5.08301631e-02
  -6.12055846e-02 -6.23871759e-02  3.20227519e-02  2.31486186e-02
   8.78622383e-03  5.81560656e-02 -7.20507950e-02 -3.58602479e-02
  -2.32894421e-02 -4.14674245e-02 -4.17212211e-02  1.47678703e-03
   8.40935856e-03 -7.16999024e-02  2.43672654e-02 -6.74941391e-03
  -1.96288377e-02  6.70320913e-02 -5.46572879e-02 -7.21555874e-02
   2.11556330e-02 -6.73131570e-02  6.39250651e-02  8.49515945e-03
  -2.66318358e-02  6.26312420e-02 -5.93969673e-02  5.59980944e-02
   4.08490449e-02 -4.74644639e-02  8.45410675e-03  7.95061067e-02
   5.63855097e-02 -4.70666960e-02 -6.53835088e-02 -4.22564484e-02
   3.11204270e-02  1.03048608e-02  6.70335442e-03 -6.56715110e-02
   1.66950226e-02  4.67437133e-02 -4.27378565e-02  6.00341633e-02
   5.98759726e-02  4.08519059e-02 -3.75663489e-02 -3.68203372e-02
  -2.37975940e-02  4.03926522e-03  2.33654976e-02  2.47689411e-02
  -7.50117004e-03  6.07328340e-02 -2.01209001e-02  7.66305104e-02
  -7.96086267e-02  2.65409872e-02 -8.38804245e-03  6.45678565e-02
   4.55237255e-02  7.09796175e-02  1.88549757e-02 -5.13618886e-02
   9.89194959e-03  6.86955377e-02  1.81948394e-03  2.06023306e-02
   1.62329525e-03 -7.97878727e-02  4.92590442e-02 -6.23718202e-02
   4.46249470e-02  7.97396973e-02 -3.99076566e-02  3.71626839e-02
  -2.36517191e-03  2.24258155e-02  5.85252717e-02  2.07496509e-02
   3.39346156e-02  1.15325674e-02 -3.27269211e-02 -1.84493959e-02
  -3.21805179e-02  6.47774413e-02  4.08876613e-02 -1.37273297e-02
  -2.73843296e-02  2.32901573e-02  7.87470117e-02  2.03146115e-02
  -3.08563858e-02  2.86608264e-02  7.65994117e-02  7.17130676e-02
   7.63289854e-02  7.51843527e-02 -6.38954341e-04 -1.39528513e-02
  -4.22012955e-02 -3.79733443e-02 -2.15624571e-02 -7.67069906e-02
  -7.74093568e-02  4.66688499e-02  4.85968515e-02 -7.03736991e-02
  -2.98377015e-02  1.79968402e-02  8.11509788e-04  6.07818365e-03
  -9.48392600e-03  4.63041142e-02  7.08612725e-02  9.01974738e-03]
 [ 6.87067434e-02 -8.11077654e-02 -3.92887332e-02 -2.29072981e-02
  -8.09365064e-02 -1.38445050e-02 -6.89984933e-02  7.38095269e-02
  -9.90409404e-03  3.83509696e-03 -2.94243842e-02 -5.30550107e-02
   2.61699036e-02  1.36551410e-02  7.55169764e-02  5.63806817e-02
  -6.66792914e-02  2.68824250e-02 -3.94157320e-03 -5.48012406e-02
  -1.63565055e-02 -3.44697833e-02  6.02020994e-02  1.60890967e-02
  -6.99541718e-02 -6.70163557e-02  5.06728664e-02 -1.40968859e-02
  -5.20149991e-02  1.87598318e-02  1.01901442e-02  4.87305969e-03
   5.02470881e-03 -1.87031142e-02 -2.71842629e-03 -7.60384649e-02
   6.48945943e-02  2.85422280e-02 -3.20040360e-02  3.33321691e-02
  -1.68689713e-02  2.19169855e-02  6.12229034e-02 -1.64998621e-02
   4.09314260e-02 -6.93705976e-02  6.70063570e-02 -2.53094248e-02
   1.68263689e-02  3.59941274e-02 -7.35822469e-02  6.95649907e-02
  -6.26136661e-02 -3.80724669e-06 -3.36680003e-02  1.74775124e-02
  -7.33121932e-02  6.23186007e-02  2.89242938e-02 -5.99224679e-02
   1.75538957e-02  7.85573050e-02  5.05544171e-02 -2.84879282e-02
  -5.49554266e-02  3.52811590e-02 -5.71214333e-02 -4.31515202e-02
   2.98756212e-02 -1.89357549e-02  5.91564849e-02 -3.48674171e-02
   6.90456405e-02 -4.00712006e-02 -7.96797872e-03 -6.20030612e-03
  -4.04991582e-02  2.09290460e-02 -5.85758649e-02 -9.44428146e-04
   1.12264454e-02 -7.43101612e-02  7.84122422e-02  3.39314044e-02
   2.30021700e-02  1.34291500e-02 -3.41778547e-02 -6.25375509e-02
  -5.51007688e-04  2.63950378e-02  2.24424452e-02  2.69206539e-02
  -4.85492274e-02 -3.99089120e-02  1.94085538e-02 -6.12989292e-02
  -3.61218564e-02 -2.29526460e-02 -2.02936493e-02 -3.29574347e-02
  -1.07545480e-02 -7.03198612e-02 -6.80402219e-02 -7.71866217e-02
   3.63647267e-02  8.05554539e-03 -3.97271141e-02 -1.61278322e-02
   2.46927664e-02 -9.22688097e-03 -6.15850985e-02  6.62721172e-02
  -4.68236692e-02  2.36735046e-02 -2.56784782e-02  3.52674127e-02
  -4.03749198e-03 -6.80099577e-02 -2.58225091e-02 -7.33663365e-02
   7.61064067e-02 -1.14100426e-02  2.51147076e-02  7.59108290e-02
   4.00148481e-02  4.70897034e-02 -5.40459268e-02  7.57087842e-02]
 [-7.21626878e-02  6.31033704e-02 -2.17416845e-02  3.07122171e-02
   8.00181553e-02 -5.01019359e-02  3.69159281e-02  4.87011671e-03
  -5.14620766e-02  6.92482814e-02 -4.77888435e-02  6.59308210e-02
   2.37828195e-02  4.06805873e-02 -6.14030473e-02  3.53862271e-02
  -2.03722417e-02  4.85101417e-02  1.71847641e-02 -4.61728796e-02
  -7.57261142e-02  4.75591198e-02  1.12667456e-02  2.84612775e-02
   6.37646988e-02  7.80157670e-02 -2.92561203e-03  7.79134259e-02
  -6.45590723e-02  3.71586382e-02  2.33387351e-02 -4.20688093e-02
  -5.21481261e-02  2.45562941e-02 -5.85061312e-02  6.37187436e-02
  -4.87606339e-02 -7.52275512e-02  1.82838961e-02 -3.83189172e-02
  -6.24050051e-02  4.82678041e-02 -6.55001551e-02  5.46221659e-02
  -5.67695908e-02  1.37289166e-02  7.94668496e-03 -6.54542670e-02
   4.87738028e-02  7.78812841e-02  6.97154775e-02  3.29105407e-02
  -1.94390714e-02 -6.58689737e-02 -4.69391607e-02  4.76945862e-02
  -1.76273435e-02  2.34067515e-02  7.90546611e-02 -1.24378502e-02
  -7.05098584e-02 -6.42809346e-02  7.56920949e-02  1.52190775e-03
   5.17613515e-02 -2.07724459e-02 -4.62299287e-02 -3.25023644e-02
   2.01089680e-03  3.71766984e-02  2.63952166e-02 -2.41780765e-02
   1.54444575e-02 -3.81145142e-02 -7.58893043e-03  4.26852703e-03
  -4.21068482e-02 -5.33963330e-02 -8.02511796e-02  1.39431283e-02
   3.33179161e-02  6.20486811e-02 -6.47002682e-02  5.04754409e-02
  -2.77048200e-02  5.77880219e-02 -2.68643200e-02  7.48879090e-02
  -5.80608286e-02 -6.91694245e-02  3.20887938e-02  3.84339392e-02
   2.06005722e-02  4.62593362e-02 -9.46248323e-03 -1.07132643e-02
   5.56919798e-02 -7.12386072e-02 -7.54863173e-02  9.86185670e-03
  -6.54986501e-03  6.90468401e-03 -4.38958891e-02 -8.02656263e-02
   2.41276622e-02  3.93261164e-02 -6.52082264e-02  5.01996949e-02
   2.70093009e-02  7.61663243e-02  5.82966134e-02 -8.06881636e-02
   6.39071390e-02  4.61528674e-02  2.23540291e-02  3.55952755e-02
  -1.89561397e-03 -4.35432382e-02  7.03335926e-02 -2.69527733e-02
  -3.89182903e-02 -1.13742277e-02  7.80261531e-02 -5.99990860e-02
  -5.11039719e-02  5.49703017e-02 -7.75403157e-02  5.91063127e-02]
 [-3.52548622e-02  3.92817706e-02 -3.86400111e-02 -8.07968453e-02
   5.69228902e-02  6.56175986e-02  2.50932798e-02  1.92581043e-02
  -4.95534465e-02 -9.78690386e-03 -7.43316486e-02  3.42446566e-03
   4.55682054e-02  2.36708894e-02  3.31804231e-02  7.12474212e-02
   2.63560340e-02 -3.16423699e-02 -5.92161566e-02 -1.67586505e-02
   6.41167685e-02  5.18369898e-02  7.84310326e-02  2.39445865e-02
   1.64702535e-04 -3.44096422e-02  6.07251376e-03 -1.70402750e-02
  -9.68301296e-03  4.45237532e-02  5.52609190e-02  3.76401246e-02
  -7.80973956e-02 -4.43815924e-02 -4.08388153e-02 -3.70411389e-02
  -7.81470761e-02 -2.08756961e-02 -5.97598143e-02 -2.28600763e-02
  -4.99267913e-02 -5.60253859e-03  7.71097168e-02 -3.37227657e-02
  -5.75865172e-02  4.26519364e-02  7.47874752e-02  2.54055932e-02
   7.63120875e-02 -2.30693333e-02 -7.54090250e-02 -2.09766999e-02
  -7.52669573e-03 -4.07512113e-02 -9.19727236e-03 -1.31507218e-02
   5.50210401e-02  1.93445235e-02  2.90603787e-02 -5.77702895e-02
   7.10420534e-02  7.82015547e-02  7.28794709e-02  8.07386562e-02
  -2.54352391e-02  1.98306888e-03  2.84766704e-02  3.05934995e-02
  -3.91799957e-02  1.08114854e-02 -3.86579186e-02  2.78014392e-02
   7.71362856e-02 -6.14982098e-02 -3.88599671e-02 -5.97377867e-02
   2.15120614e-04  2.86922380e-02  3.38500664e-02  2.55190507e-02
  -3.41571793e-02 -1.61405802e-02  5.28552160e-02 -3.15794833e-02
   6.84031472e-02 -4.17115130e-02 -3.34069133e-03  3.57470214e-02
  -3.91789712e-02  8.56591761e-03 -5.65863997e-02  5.29897138e-02
   4.52382788e-02 -3.35770510e-02  7.27660730e-02 -7.36512095e-02
  -8.07758644e-02  5.95589057e-02  4.18859050e-02  7.52012655e-02
  -4.30537648e-02  1.42445713e-02  4.79018912e-02 -5.53456172e-02
   1.33183822e-02 -2.12002285e-02  6.96223453e-02 -1.72418728e-02
   7.13194534e-02 -2.08880343e-02  6.42460212e-02 -7.53605589e-02
  -7.29542375e-02 -1.17251948e-02  2.84566581e-02 -6.73434883e-03
  -2.00701393e-02  7.01306984e-02 -2.57504918e-02 -5.54563068e-02
  -2.39586085e-03 -7.36716688e-02 -2.49371231e-02 -2.63949223e-02
   7.16184303e-02 -2.41903551e-02  7.52235726e-02 -2.40759552e-03]
 [ 3.53910401e-02 -3.50967050e-03 -3.98686528e-02  4.21829820e-02
  -1.25315115e-02  5.65631613e-02  6.00480959e-02 -3.79307978e-02
   1.10403150e-02  7.03058913e-02 -2.75717936e-02  4.29659486e-02
  -5.23956157e-02 -1.85029060e-02 -5.14120683e-02 -2.42527239e-02
  -1.42615885e-02 -5.70433587e-03  4.92441729e-02 -6.79931939e-02
  -2.50840001e-02 -5.30064180e-02  7.17567876e-02 -4.51808237e-02
  -1.13809407e-02 -5.20657822e-02  3.35182026e-02  7.76729509e-02
  -4.99739572e-02 -1.01379678e-02  7.33950958e-02 -5.33766448e-02
  -6.96866661e-02 -6.84674457e-02  5.08539006e-02  2.29552388e-05
  -4.24626134e-02  5.53164631e-03 -6.49431199e-02  7.62637928e-02
  -4.14650850e-02  2.89168656e-02 -3.38909328e-02 -5.38632758e-02
   6.52390048e-02 -7.99259841e-02  6.60715476e-02  2.60676593e-02
  -6.76387995e-02  5.76087758e-02 -2.39584148e-02  7.46688321e-02
   6.02602437e-02 -2.53009349e-02  2.36262754e-02  6.18606806e-03
   4.51566949e-02  5.77526018e-02  2.28335783e-02 -1.52539164e-02
   3.44096422e-02  4.10132110e-03  5.29578552e-02  3.96314263e-02
  -1.99643970e-02 -2.56634913e-02  9.65605676e-03  2.05541775e-02
   4.79945540e-03 -7.56950527e-02 -1.31451115e-02  4.93569896e-02
  -1.59809813e-02  5.40489033e-02  4.99315038e-02 -6.62555844e-02
   1.18007883e-02 -6.43922463e-02  5.71394935e-02 -5.45339473e-02
  -2.29510032e-02 -2.67090537e-02 -7.27163404e-02  6.55680373e-02
   5.36498949e-02 -2.03567706e-02 -1.31687820e-02 -7.51385391e-02
   1.07720941e-02  7.53395781e-02  7.48228058e-02 -6.31510019e-02
  -2.02755891e-02 -7.56094605e-03 -3.44962403e-02 -4.52105477e-02
   4.43425700e-02 -6.40785992e-02 -2.01326199e-02 -4.05024625e-02
   3.43506783e-02  4.99869958e-02  2.69889385e-02 -3.35220732e-02
  -5.71210831e-02 -5.73554449e-02 -2.42001787e-02  6.42385334e-03
   7.82085285e-02 -2.31178924e-02 -2.41602845e-02 -4.53042984e-02
  -6.45440295e-02  7.65540972e-02 -2.91475542e-02 -5.32600172e-02
   5.10987565e-02 -2.77269632e-02  6.64559528e-02  3.24325934e-02
  -3.51880491e-02 -4.24493104e-03 -5.44604808e-02 -6.37641773e-02
  -1.13271177e-02  6.74110278e-02 -5.10554314e-02 -5.80026954e-03]
 [-4.46439944e-02  8.17157328e-03  3.13202888e-02 -1.81576610e-03
  -3.53646651e-02  8.76396149e-03  6.80586472e-02 -1.63302273e-02
  -6.03029691e-02  3.14958245e-02  4.53910157e-02  3.83117646e-02
  -6.25397339e-02  1.92772523e-02  7.70004839e-03 -3.65566574e-02
   4.66401950e-02 -4.28860448e-02  1.34354159e-02 -7.54310340e-02
   6.80026338e-02  3.49365696e-02 -2.85812132e-02  1.80392489e-02
   1.79098994e-02 -1.02113783e-02 -2.90685184e-02 -3.39235179e-02
  -4.14930694e-02  4.25026044e-02  4.58242223e-02  4.11337465e-02
  -6.89938366e-02 -3.75568941e-02  2.54468024e-02 -6.46665990e-02
  -1.71854049e-02  7.13035837e-02  6.20627478e-02  7.71813765e-02
  -6.04799539e-02 -6.70756698e-02 -2.72803269e-02 -2.75312625e-02
   3.83741409e-03  4.32372317e-02  1.12660676e-02 -3.34484130e-02
   5.83990142e-02  2.65473276e-02  3.91025096e-02  2.47735381e-02
   2.98540220e-02 -7.40004778e-02 -2.68334001e-02  5.17498478e-02
   2.42709592e-02 -7.14067668e-02 -3.84578258e-02  2.62958929e-02
  -8.08859393e-02 -4.13575247e-02 -2.42254175e-02  2.67431512e-02
  -8.09417292e-02 -4.73683923e-02  3.66699770e-02 -5.44091985e-02
  -1.18363351e-02 -6.86897561e-02  1.64568946e-02  7.75747076e-02
   4.43963036e-02  5.03045842e-02 -1.94072016e-02 -4.83525582e-02
  -5.72574362e-02  7.85544887e-02 -5.18336631e-02  2.80426815e-02
  -3.78392115e-02  4.63328883e-02  6.81270882e-02 -2.94852220e-02
  -5.40624037e-02 -7.12081641e-02 -1.42468140e-02  3.92163545e-03
   7.35837147e-02  6.05626777e-02 -1.64522231e-03  7.98170194e-02
   4.50843573e-03 -5.37768900e-02 -5.10503463e-02 -2.30191909e-02
  -2.20627189e-02  1.53635219e-02  3.23319957e-02 -7.26470500e-02
  -4.10479009e-02 -5.46768568e-02  4.51526120e-02  3.07780057e-02
   1.47419348e-02  7.61874020e-04 -2.15443969e-03 -2.52253599e-02
  -7.68145695e-02  2.35524252e-02 -2.46729627e-02 -7.48893246e-02
  -6.51018843e-02 -5.95565140e-03 -5.73201925e-02 -7.66778290e-02
  -7.76696876e-02  1.68707892e-02  2.31271982e-02  3.78017128e-03
  -5.99787235e-02  1.39822066e-02  2.46701986e-02 -4.96920235e-02
  -1.62446722e-02  7.16537014e-02  3.62937897e-02 -7.34631643e-02]
 [-5.57423197e-02  7.03930855e-05  5.42638376e-02  5.64475134e-02
  -8.10675621e-02  4.46418151e-02  7.19098225e-02 -7.95136392e-03
   5.19943908e-02 -6.62909374e-02  3.53346542e-02  6.03067949e-02
  -6.90183714e-02  7.03595951e-02 -6.03136420e-02  8.01894739e-02
   5.81211373e-02  7.83970430e-02  3.05547267e-02  4.96899560e-02
  -4.11219671e-02 -3.95992287e-02  1.75921097e-02 -5.64354807e-02
  -4.44619805e-02 -1.44266039e-02  4.70872223e-03 -4.73216176e-03
   6.60922900e-02 -3.49871628e-02 -8.08017179e-02 -1.14870071e-02
   4.40326110e-02 -7.30262920e-02 -1.44317448e-02 -2.29483731e-02
   1.82664543e-02  4.23149243e-02 -4.89782467e-02 -7.45908916e-03
  -2.78675519e-02  1.72453150e-02 -1.56500041e-02  1.01956353e-02
  -2.27220394e-02  7.00259581e-02 -4.96702120e-02 -6.68042749e-02
  -5.86754829e-03 -6.06633946e-02  6.08351454e-02 -2.07537264e-02
   1.10141262e-02  3.75480205e-03  1.37387216e-02  5.26429191e-02
   1.60793141e-02 -4.01503146e-02 -7.28905573e-02  8.10771957e-02
   4.82301489e-02  1.44373924e-02  5.02239838e-02 -7.08611608e-02
  -6.35493845e-02  7.88648203e-02 -1.44399256e-02  7.78710768e-02
  -1.33331940e-02  4.64609787e-02 -3.42958383e-02 -2.18071043e-02
   6.71722069e-02 -2.42961571e-02 -4.99125570e-02 -2.86359340e-03
  -8.03491250e-02 -4.76101600e-02 -1.14713609e-02 -1.10819116e-02
   2.33621523e-02  5.21804616e-02  7.60551021e-02  5.45854643e-02
  -7.71443620e-02  3.66890281e-02 -1.14349499e-02  7.98026994e-02
  -9.20534134e-03  4.11014706e-02  4.91773561e-02  6.72521666e-02
   8.09276327e-02 -1.50046274e-02 -1.98281780e-02  6.92808107e-02
  -1.35129094e-02 -2.66865268e-02  3.84205803e-02 -6.58020377e-03
  -5.13130575e-02  1.23213977e-02 -4.97169308e-02 -9.33825970e-04
   8.47462565e-03 -6.70446306e-02 -1.62559524e-02  4.47983518e-02
  -4.38336208e-02  6.80689588e-02 -6.53952658e-02 -6.16686791e-03
   2.18933523e-02 -3.95699330e-02  4.14077863e-02 -5.50483651e-02
   5.95802143e-02  7.09979609e-02 -3.70599180e-02  4.16595489e-03
  -2.72586495e-02  1.79020837e-02 -6.50224611e-02  1.30042508e-02
  -4.40609045e-02 -7.12699145e-02 -4.58095334e-02 -4.04311456e-02]
 [-5.73519617e-03 -6.23685122e-03 -2.66386233e-02 -8.47659260e-03
   1.16768107e-02  6.11632094e-02 -4.40521650e-02 -7.40964338e-02
  -6.18170612e-02 -1.12608820e-02 -6.97478130e-02 -2.53680609e-02
   9.57949460e-03  7.64332935e-02  7.35708550e-02  4.99502942e-02
  -7.05395266e-02  6.53155670e-02  5.41824922e-02  5.68050370e-02
   2.84190252e-02  5.42191640e-02 -5.95992282e-02 -5.22662252e-02
  -1.20210722e-02 -1.57980174e-02 -5.61144277e-02  5.41548058e-02
   2.21111998e-02  8.02629367e-02  5.77831045e-02  7.76702389e-02
  -7.16327354e-02  3.99461389e-03  1.41199008e-02 -1.90577395e-02
   4.25022840e-03  3.68183255e-02  1.43883303e-02  7.42272809e-02
  -7.98299536e-02  5.55461124e-02 -6.77896738e-02 -3.92020419e-02
   2.64212415e-02  3.13823074e-02 -7.59765431e-02 -6.05194792e-02
  -2.61913687e-02 -4.46214639e-02 -5.12958318e-03  4.06384915e-02
  -4.81983535e-02  5.53463325e-02 -5.04640266e-02 -4.66443673e-02
  -6.17800094e-02 -7.49732703e-02 -4.58952375e-02 -3.21947299e-02
  -4.94450741e-02  6.65125921e-02 -6.54829443e-02  7.22550079e-02
  -5.35981655e-02 -4.10415977e-02  7.31877908e-02  7.54464194e-02
   7.95723274e-02 -4.64581400e-02  2.59519219e-02  1.17542222e-02
   7.76488110e-02 -6.15466312e-02  2.47527733e-02  6.34553954e-02
  -1.13107264e-04 -3.21824700e-02  7.37388656e-02  3.31400856e-02
   1.17915124e-03  3.34768221e-02  6.33095577e-02  2.51157358e-02
   3.62220109e-02 -1.25903562e-02 -1.60393417e-02 -8.10884312e-02
   4.32162732e-03  4.85782102e-02 -3.06270719e-02 -1.75417885e-02
   6.42794296e-02  2.87731886e-02  3.06245387e-02 -5.19686267e-02
   7.08729401e-02  4.85660508e-02  7.91391507e-02 -3.67394239e-02
  -4.66848798e-02  3.73815000e-03  7.11110234e-03  6.21095076e-02
  -3.01300399e-02 -5.90185747e-02  1.68736950e-02  5.53989634e-02
   6.51604161e-02  1.24425143e-02 -6.69590533e-02 -4.64574806e-02
   8.03752169e-02  4.90764603e-02  1.67985782e-02  1.07626170e-02
   7.76890889e-02 -5.95201738e-02 -6.21072501e-02  8.16091895e-03
  -6.23103976e-02  3.74092236e-02  7.71020278e-02 -7.49473423e-02
  -9.55422223e-03  4.07501310e-02  5.80077842e-02 -3.19576040e-02]
 [ 8.05236921e-02  1.48407370e-02 -7.85887018e-02  4.21889797e-02
   7.94661567e-02 -5.38087040e-02  8.77629966e-03 -6.98344857e-02
   5.55729493e-02 -1.59800053e-03  5.44709191e-02  6.24320731e-02
   2.32474208e-02  2.82474384e-02  5.47701493e-02  4.48647365e-02
  -4.88772988e-04 -3.64890695e-03 -3.05545330e-02  2.34424472e-02
   8.01777765e-02  7.82128647e-02  1.02458000e-02  4.75250185e-03
  -8.03342015e-02 -7.94372112e-02 -1.25743598e-02  3.35534215e-02
  -2.51324028e-02 -7.10557997e-02  4.96337935e-02  2.42032558e-02
   3.55486274e-02 -4.99509424e-02  4.59312424e-02 -4.24817204e-02
  -2.88153440e-02  5.68971783e-03 -3.90438139e-02  7.63235912e-02
   2.06677914e-02 -5.90451472e-02 -3.34011316e-02 -7.51641244e-02
   1.89420208e-02 -3.61094587e-02  4.53544632e-02  2.83489227e-02
   5.79863712e-02  2.07563937e-02 -6.05783463e-02 -1.51517540e-02
   6.13809377e-03  7.16195479e-02  6.45267293e-02  3.50095332e-02
  -6.30246252e-02 -7.15089291e-02 -1.77782178e-02  5.38224950e-02
   4.07533348e-03  6.33575693e-02  6.09559789e-02 -1.63611472e-02
   6.27676025e-02  6.27118126e-02  4.51997146e-02 -1.22862309e-03
  -5.69302142e-02 -6.19822070e-02 -1.95761807e-02 -5.03525063e-02
   8.07622895e-02 -2.14165486e-02 -6.23694211e-02  7.57525638e-02
   4.88326177e-02  3.48363817e-03 -7.83352405e-02  1.31882951e-02
  -1.53133646e-02 -3.69615816e-02 -8.34845752e-03  4.05986607e-03
  -2.88661644e-02  2.72940546e-02 -7.21987113e-02  4.71630022e-02
  -2.17445940e-03  3.47024426e-02  6.02105483e-02 -1.45495012e-02
   6.28330782e-02  8.81528854e-03 -1.94740742e-02 -2.53714249e-02
  -6.21138662e-02  7.25356489e-03 -1.57420933e-02 -7.62226209e-02
  -8.48978758e-03 -6.39114529e-02  7.09984824e-02  9.79221612e-03
  -2.59675086e-02  1.66478977e-02  7.80483708e-02 -7.11083189e-02
   7.71593377e-02  6.60568848e-02 -6.02570027e-02  3.29148695e-02
  -1.96065232e-02 -3.08440477e-02 -5.14178723e-02 -7.95840472e-03
  -4.36395034e-02 -6.86908960e-02 -3.83209437e-03 -8.01246464e-02
   7.37622380e-03 -1.93641149e-02  1.48964673e-02 -2.73225419e-02
  -1.17559060e-02 -6.94245920e-02  1.42623484e-03 -1.34107471e-03]
 [-8.03666562e-03  2.11662501e-02  3.91836464e-03  3.32988501e-02
  -7.87065104e-02  2.05504224e-02 -9.15244222e-04  7.69234821e-02
   6.31305054e-02 -6.05744012e-02 -2.82275751e-02 -8.75733793e-04
   5.03704324e-02  2.64339671e-02 -4.07202132e-02 -1.39706060e-02
   4.06317413e-02 -7.35438466e-02  2.10309774e-03 -7.79439658e-02
  -2.98727416e-02  7.49415383e-02 -4.28200513e-03  6.29115477e-02
  -5.73044121e-02 -5.94327822e-02  7.87139013e-02  6.74643889e-02
  -5.40274754e-02  1.77684948e-02  1.47606730e-02 -3.37841660e-02
   7.21498206e-02  4.59422246e-02 -5.43704033e-02  6.85273930e-02
   6.29461780e-02 -6.50247782e-02  4.08588871e-02  5.58321998e-02
   1.87057257e-03 -5.80240265e-02  1.46594942e-02 -4.27136235e-02
   6.23216406e-02  1.33993700e-02 -2.93010250e-02 -3.11435983e-02
  -7.92475417e-02  7.35920295e-02 -5.04007712e-02  6.53543994e-02
  -5.12900837e-02  6.10078946e-02  7.52215087e-03 -4.04087119e-02
  -9.67568904e-03  6.30060360e-02 -5.05430251e-02 -2.74097770e-02
   3.33083645e-02 -9.66033340e-03 -4.21361811e-02 -5.89836128e-02
   3.74254510e-02  7.31538311e-02  5.12285456e-02 -7.09679797e-02
  -4.89078350e-02  5.10225818e-02  3.54061872e-02  9.32386518e-03
   3.17380950e-02  5.03826365e-02  3.71941850e-02  2.67210454e-02
   2.96276063e-02  2.49404684e-02  6.88303337e-02 -5.59879169e-02
   2.02569067e-02  4.87650260e-02 -7.02240989e-02  2.49442607e-02
  -6.38393462e-02 -9.42906737e-03 -4.11406159e-04  6.51705787e-02
  -4.94484790e-02  4.78773564e-03 -2.16578506e-02 -4.00423296e-02
  -4.93525788e-02 -6.03455715e-02  4.46834639e-02  5.18968925e-02
   5.69993928e-02 -3.30654383e-02  3.60148922e-02  2.60814875e-02
  -3.90921794e-02 -1.49429590e-02  4.41156104e-02 -1.52654797e-02
  -7.17459843e-02  6.07439056e-02  7.58699104e-02  2.31469423e-02
   5.60180470e-02  4.08341363e-02 -1.35511756e-02  7.87248239e-02
   4.49882522e-02  1.61404982e-02 -2.79026330e-02 -6.90655187e-02
  -2.25880444e-02 -6.63873032e-02 -4.61702086e-02  1.81098729e-02
   5.14675677e-03 -6.49445504e-03 -7.20883161e-03 -2.70988569e-02
  -6.44465238e-02  6.43107370e-02 -6.35010749e-02 -4.36424427e-02]
 [ 1.75879896e-03  3.24091166e-02  6.83741495e-02  6.96784034e-02
  -2.55121291e-02  5.88754565e-03  2.72067413e-02  3.15570086e-02
   1.17913336e-02 -7.81758726e-02  7.54407421e-02  3.55948061e-02
  -1.49087682e-02 -2.09565088e-02 -7.11861998e-03 -7.60465115e-02
   7.24888816e-02 -6.24903068e-02  1.24422461e-02  1.31721497e-02
  -3.01682875e-02 -1.54775232e-02  3.12104300e-02  7.69943520e-02
  -5.66058531e-02 -7.13221654e-02  3.12364101e-03 -7.30651021e-02
   8.09407756e-02 -2.97003202e-02 -8.25703144e-03  1.99194252e-03
   5.21513149e-02 -4.90825623e-03 -6.06715679e-03 -1.02084950e-02
  -2.26253271e-02  7.10317567e-02  6.09534904e-02 -6.71958923e-02
  -3.55788320e-03 -3.89212295e-02  6.03600368e-02 -2.16759704e-02
   7.39555880e-02 -4.77181263e-02 -4.93828803e-02  3.31315547e-02
  -3.74420024e-02 -2.34089717e-02  1.27007589e-02 -1.06067508e-02
  -3.75389270e-02  2.59011388e-02 -5.56667857e-02 -6.01824336e-02
  -7.22871050e-02  4.24499661e-02 -6.05208352e-02  1.62464380e-02
   4.86856326e-02 -1.25830993e-02  1.04977936e-02 -7.48367086e-02
   1.45928934e-02 -3.58169861e-02 -1.35267749e-02 -7.57059082e-02
   5.50588220e-03  6.59171268e-02 -2.96479538e-02  3.40597928e-02
  -3.08036506e-02 -1.04870275e-02  2.99651027e-02  1.02548674e-02
   4.61094901e-02  6.67014346e-02  6.63212687e-03 -4.10558470e-02
  -2.25023739e-02  2.35310569e-02 -3.80026214e-02 -2.66113579e-02
   7.38949329e-03  6.36194870e-02 -1.36947483e-02  4.25412804e-02
   7.68424496e-02  3.90259847e-02 -1.71933174e-02 -5.49845099e-02
  -4.39256541e-02  7.47758821e-02 -4.04683314e-02  4.13208231e-02
   5.79785556e-03  6.50126487e-03 -7.69598559e-02  7.46275410e-02
   1.41375139e-02 -5.81718683e-02  1.69954821e-02 -6.13381676e-02
  -2.55649798e-02 -3.94852124e-02  1.15769729e-02  1.96011066e-02
  -1.17343441e-02 -2.75601149e-02  3.27276587e-02  5.33366725e-02
   3.17607597e-02 -1.94247812e-02 -4.22624238e-02  8.04684311e-03
   5.98370954e-02  7.48652443e-02 -3.95808779e-02 -1.94690377e-03
   1.32818893e-02 -4.44078520e-02 -8.01002830e-02 -3.32649313e-02
  -4.03369963e-03 -5.72739542e-02 -7.53078237e-02  1.78678930e-02]
 [-4.99391109e-02 -2.33120881e-02  1.45285726e-02  6.23956844e-02
  -3.03670764e-04  7.31411949e-02  1.08577609e-02 -4.03553247e-04
   4.77942005e-02  7.36979172e-02 -2.15903036e-02 -3.44449170e-02
   5.23109064e-02  7.21932128e-02 -3.62438709e-03 -5.43870330e-02
   6.39697239e-02 -2.59113312e-02 -4.52614576e-03  4.69325855e-02
  -2.20178068e-03  6.00713119e-02  7.09985718e-02  4.93065342e-02
   5.60752079e-02 -5.92980906e-02  3.73362824e-02  7.31444433e-02
  -2.95948312e-02  5.59749976e-02  9.55837965e-03 -3.07094306e-03
  -5.59935831e-02 -4.06450070e-02 -4.81416546e-02  1.42648369e-02
   4.92387488e-02  3.50973159e-02  7.16925189e-02  8.77390057e-03
  -7.14291781e-02 -7.12003559e-02 -2.44206190e-02 -2.71789171e-02
  -1.90479346e-02  3.18011567e-02 -2.40980536e-02  7.23958015e-03
   4.23579738e-02  7.46657625e-02 -2.05235630e-02 -4.81255352e-04
  -1.56596154e-02 -3.67645919e-03  4.50480059e-02 -5.97253442e-03
   2.83215195e-03  3.85268033e-02  1.35290325e-02 -2.31047831e-02
  -3.96462046e-02  5.57181910e-02  5.73106036e-02  1.14059448e-02
   3.73526663e-03  5.14127389e-02  2.91860402e-02 -2.21811980e-03
  -5.20306043e-02 -7.02130944e-02  7.45601729e-02  1.37358904e-04
  -7.11204633e-02  7.18889758e-02 -6.52643442e-02  2.93860734e-02
   4.15891632e-02 -7.09434226e-02 -2.89154574e-02 -4.88389358e-02
   1.54452100e-02 -4.57900017e-03 -9.57597792e-03  1.61881670e-02
  -2.36074030e-02 -3.77823971e-02  7.12929294e-02 -4.71321754e-02
  -3.48822884e-02  6.93862513e-02 -5.12631461e-02  6.52522072e-02
  -6.86345473e-02  2.33826786e-03  3.65061238e-02  5.61329350e-02
   8.90344381e-05  3.69573310e-02  4.80075106e-02  3.45767662e-02
  -9.62237269e-03 -3.93568836e-02  6.26979992e-02  7.07881525e-02
  -4.47438769e-02 -1.83574855e-03 -2.78004706e-02 -7.11090863e-03
   5.16455397e-02  1.99090317e-02  3.01526040e-02  5.42454422e-03
  -6.87182024e-02  2.50196233e-02 -5.06196618e-02 -1.64264962e-02
  -6.01602346e-02 -1.12492219e-02 -1.65058374e-02 -4.67976034e-02
  -7.52112865e-02 -7.60531798e-02  5.15238419e-02  4.23775613e-02
  -5.52314036e-02  4.99291942e-02  3.09531316e-02  6.84627071e-02]
 [ 7.13707581e-02  7.96941593e-02 -9.59042460e-03  7.92519078e-02
  -3.91841158e-02 -1.07884929e-02  3.02565694e-02  5.97680882e-02
  -3.26018780e-03 -2.26856619e-02 -2.26061046e-02 -7.39086419e-03
  -1.65384635e-02 -2.79533565e-02 -4.82366830e-02  6.81825206e-02
   6.45994172e-02  1.90079659e-02  4.89056483e-02 -7.00838864e-04
  -7.57946074e-02  7.38013014e-02  4.71738502e-02  3.50961685e-02
  -7.24409819e-02 -1.64535865e-02 -3.71353775e-02 -6.90408424e-02
   5.41507527e-02 -2.41026953e-02  5.33567294e-02 -6.97433949e-03
   8.69556516e-03  7.90654942e-02  4.62035462e-02 -6.91750124e-02
  -4.30247970e-02 -4.56853956e-03  3.42558026e-02 -7.26400912e-02
   5.94900772e-02 -8.81569088e-03 -4.27552983e-02  2.33810693e-02
  -6.13391921e-02  9.62883234e-03 -6.70017526e-02  2.65461281e-02
  -5.76231442e-02  5.25853857e-02 -5.62722459e-02  1.54327005e-02
  -8.65319371e-03  5.61765954e-02 -4.97880206e-02  3.09295431e-02
   5.53182289e-02 -4.08758298e-02 -6.95929676e-03 -5.35382181e-02
   1.91084072e-02 -1.13306195e-02 -3.47567052e-02  1.62721574e-02
   8.67784023e-04  3.63571867e-02  1.74591988e-02 -1.73295513e-02
   7.81699196e-02 -2.12322921e-03 -7.52353296e-02  4.50739786e-02
  -1.23761073e-02  1.60722509e-02  6.81512281e-02 -8.01256746e-02
   3.17603350e-02 -4.62220944e-02  2.59850100e-02 -5.44465184e-02
  -2.54294984e-02 -3.35672647e-02 -1.14720985e-02  2.24595219e-02
   6.27192333e-02 -1.84830800e-02 -7.70327449e-02 -7.80211389e-03
   1.32772923e-02 -6.22027069e-02 -2.97799371e-02  3.46218199e-02
  -4.72999141e-02  2.28839964e-02  2.99253389e-02 -6.25086948e-02
   3.04666907e-03  8.10102597e-02 -3.80239710e-02  5.46693280e-02
  -7.20414892e-02  1.15413219e-03 -3.04689221e-02 -5.77201843e-02
   2.10745111e-02 -4.82821465e-02  7.31348768e-02 -3.39094363e-02
  -2.26823762e-02  7.51814917e-02  3.69951949e-02 -1.64569542e-02
   5.97602054e-02  7.73262456e-02 -7.64713734e-02  3.70519683e-02
   2.89625823e-02 -1.34023875e-02 -5.71335182e-02 -7.35953823e-02
   3.87790352e-02  4.21242490e-02  7.60922506e-02 -4.55426238e-02
  -7.39679709e-02 -1.35909989e-02 -4.67184186e-03 -5.92559129e-02]
 [ 4.54466827e-02  3.83489318e-02 -4.25824523e-02  3.64779159e-02
  -3.18239667e-02 -7.79406866e-03  5.23121729e-02  7.62041137e-02
  -2.24843472e-02  5.88663369e-02 -3.15313488e-02 -5.22772744e-02
  -3.62779722e-02 -6.77510798e-02  4.74109016e-02 -4.27021645e-02
   4.24347594e-02 -5.36059514e-02 -2.68560760e-02 -7.03890771e-02
  -3.55272815e-02 -6.89107925e-02 -5.49135953e-02 -5.73071577e-02
  -4.23818938e-02 -7.35415742e-02  4.24210392e-02  5.32554910e-02
  -5.39486334e-02 -5.16733900e-02  5.00632748e-02  5.70899621e-02
   8.85475427e-03  6.17256239e-02 -2.58967280e-02  6.37891963e-02
  -5.40752038e-02  6.23301268e-02 -6.35064915e-02 -8.10614154e-02
   2.29926389e-02 -6.80882931e-02  6.81929886e-02  4.64677140e-02
  -2.69276407e-02  3.51561382e-02 -1.76331364e-02  5.09912148e-02
  -4.25691679e-02  2.26745997e-02 -5.63703887e-02 -2.30196007e-02
   8.68718550e-02 -5.80200031e-02  4.48199883e-02  4.20224518e-02
   5.85403964e-02 -3.47903930e-02 -6.84075132e-02 -2.14582104e-02
   1.45940175e-02 -4.11533676e-02 -6.53536469e-02 -4.07610014e-02
  -6.23649731e-02  5.88814728e-03 -2.57019885e-02 -1.02293910e-03
  -8.02837312e-02 -3.73596996e-02 -2.67111249e-02  3.31167728e-02
  -6.83138520e-02  3.76008451e-02  5.56049533e-02  6.18721209e-02
   2.43271366e-02  7.25786462e-02  2.45330986e-02  4.91877422e-02
  -5.15544042e-02  4.35667932e-02  6.67009577e-02  3.54958363e-02
  -5.22980727e-02 -8.13308805e-02  5.36027476e-02  1.15897590e-02
   6.23046309e-02 -4.34160307e-02  5.98151945e-02  3.85144502e-02
   8.68621618e-02  3.05726454e-02  4.05783877e-02 -5.89657351e-02
  -4.80053611e-02  1.12360194e-02 -1.75723433e-03  7.46349171e-02
  -6.44854382e-02  3.06632370e-02 -2.10896470e-02  1.89693701e-02
   7.80783594e-03  7.54357874e-03  6.74066618e-02 -2.06397790e-02
   8.20544884e-02  6.90409681e-04 -3.91476974e-02 -3.50759961e-02
   1.41268820e-02 -1.83689874e-02 -6.19468018e-02 -2.00927630e-02
   1.77620985e-02  6.64248019e-02  1.89633798e-02 -7.28647783e-02
   1.15492418e-02 -7.78529048e-03  7.71847591e-02  3.10592800e-02
   2.45373175e-02  2.44118944e-02 -4.59029479e-03  4.34845462e-02]
 [ 8.86637345e-03  5.42264916e-02  2.56450251e-02 -7.33385282e-03
   2.37667225e-02  1.11014419e-03 -3.39175425e-02  1.01719499e-01
   2.00494956e-02  3.66781726e-02 -1.80532206e-02 -3.66196260e-02
   5.03288098e-02 -8.36985465e-03  7.38277659e-02  5.06937206e-02
  -1.03750341e-01 -8.19836631e-02  3.94293740e-02  7.80148506e-02
   4.71379384e-02  5.13789542e-02 -4.68124449e-03  1.00294307e-01
  -5.85912094e-02 -4.62370878e-03  2.80637164e-02 -1.67385209e-02
  -1.03532009e-01 -6.22019842e-02 -3.84289660e-02 -7.81332850e-02
   3.80841107e-03  3.41133997e-02  4.41304445e-02  5.92631325e-02
   7.06356019e-02 -8.13120529e-02  2.89426837e-02 -5.95684052e-02
   1.03474714e-01 -3.57541367e-02  7.37869292e-02 -3.95583659e-02
  -6.26739487e-02 -4.75876741e-02 -4.97114137e-02 -2.20625177e-02
   2.94755213e-02 -7.68973911e-03  3.11172549e-02 -6.59095049e-02
  -1.98102482e-02 -1.67214125e-03 -4.81660962e-02 -9.07754898e-03
   4.02056947e-02 -5.13707101e-02  1.78967956e-02  4.32540253e-02
   6.39046282e-02 -1.41268931e-02  8.60931724e-03 -8.35697651e-02
   1.34562254e-02  2.79369764e-02 -4.03751247e-02 -3.72162908e-02
  -6.09292164e-02  6.74452409e-02 -2.69464590e-02  3.04092956e-03
   6.59424870e-04  6.26048073e-02 -1.74658874e-03  1.14229461e-02
   5.78881726e-02 -1.91067196e-02 -2.57313326e-02  9.06984732e-02
   6.10438641e-03 -5.11212200e-02 -5.11689205e-03 -2.65680663e-02
   4.98386584e-02 -8.42121392e-02 -8.45040753e-02 -5.26778400e-02
   5.41398972e-02  6.46895021e-02 -6.38580546e-02  6.15969002e-02
   6.97048008e-02  8.78728461e-03 -4.78025228e-02  3.85731310e-02
  -4.11669612e-02  6.49803653e-02 -3.61954123e-02  4.59971242e-02
  -5.08823711e-03  1.65872909e-02  5.40219322e-02 -2.96225268e-02
  -8.70575085e-02 -6.51088059e-02  2.23933198e-02  1.60699058e-02
  -4.69785631e-02 -6.66422620e-02  4.42680493e-02  7.35810101e-02
   1.01612136e-02 -4.37718537e-03 -6.39155433e-02 -1.32946000e-02
  -3.20785195e-02  3.63227986e-02 -8.64145011e-02 -3.75534594e-02
   3.34802903e-02 -1.72693636e-02 -1.93426386e-02  3.72340977e-02
   7.12418184e-02 -6.42001033e-02 -5.67204803e-02 -4.26298156e-02]
 [-8.37209076e-02  8.65931995e-03  1.38030052e-01 -1.06805354e-01
   6.05090186e-02  7.17443153e-02 -2.39819102e-02  7.64462203e-02
   1.10754088e-01  3.84718031e-02 -4.04126383e-02  5.13560846e-02
   1.70522518e-02  5.82924671e-02  9.26761925e-02 -9.72015932e-02
  -1.08293965e-01 -9.35326815e-02  1.00494362e-02  5.94775788e-02
  -3.57377306e-02  5.10377027e-02 -2.21348349e-02  1.07450252e-02
  -1.25017181e-01  3.20637599e-02 -4.98566739e-02 -2.96933278e-02
  -1.46090388e-01 -2.27516759e-02  1.93297520e-01  5.75935021e-02
   6.27360716e-02 -6.86140358e-03 -9.26379412e-02  6.36535808e-02
  -5.36369048e-02 -1.37458816e-01 -4.41492768e-03  1.89846233e-02
   1.02525592e-01 -4.78437804e-02  1.13562644e-01  2.86737233e-02
   1.19288415e-02  1.23154558e-02 -1.53216971e-02 -1.76669076e-01
   2.51509119e-02 -4.53958614e-03  7.04395697e-02  5.47619686e-02
   1.19312488e-01 -3.69329080e-02 -5.64517677e-02 -3.69764157e-02
   6.09424338e-02  6.89904988e-02  8.05369392e-03 -4.53408472e-02
  -3.03565413e-02 -6.84199855e-02  6.28529638e-02 -8.99549499e-02
  -5.07406741e-02 -2.08445005e-02 -3.65319266e-03  2.30981428e-02
  -6.25762865e-02  7.50193968e-02 -6.64375490e-03  5.11871316e-02
  -1.09792262e-01  6.73315302e-02  1.05946653e-01 -1.50084093e-01
  -4.79159951e-02  5.64339682e-02 -1.41329989e-01  3.57747544e-04
   4.68522385e-02  4.54232916e-02  2.23385438e-01  6.07616594e-03
  -1.50082797e-01 -8.59698281e-02 -1.32073328e-01  2.55828886e-03
   7.22444654e-02 -5.27567714e-02 -8.47240984e-02 -1.95512623e-02
   1.75539747e-01  4.48752493e-02  9.04671475e-02 -7.79706910e-02
   6.17471617e-03  2.70829201e-02  1.22688778e-01  6.56316876e-02
   1.51893795e-01 -9.51464623e-02  1.27134889e-01 -1.10112786e-01
   4.38305326e-02  1.84419185e-01  5.01314551e-03  1.55987397e-01
   1.47758983e-02 -1.30639225e-01 -1.26505256e-01  7.71720111e-02
   4.10216972e-02  1.64076909e-01 -8.54570568e-02  1.31139755e-02
  -2.43904367e-02  1.38567463e-01 -2.64165364e-02  2.71590948e-02
  -1.27911255e-01  7.29370257e-03 -1.50354281e-02  4.57481518e-02
   1.09299093e-01 -4.97987531e-02 -8.58115107e-02 -1.34972692e-01]
 [-1.44116879e-02  1.17108552e-03  3.32777314e-02 -1.34432599e-01
  -1.50613626e-02 -6.44293651e-02  4.08293866e-02  1.12426773e-01
   9.28433985e-02  1.14266172e-01 -1.63293585e-01  1.03753440e-01
   8.56993198e-02 -5.26721887e-02  9.50303227e-02 -1.57339588e-01
  -1.64130718e-01 -1.45439178e-01 -1.02906480e-01  1.42993778e-01
  -2.39646398e-02  4.08924483e-02  2.62707938e-02  1.37343913e-01
  -4.89752553e-02  1.11559138e-01 -1.38054267e-01 -5.03683984e-02
  -1.49787217e-01 -6.86255246e-02  1.07953824e-01 -2.92687099e-02
  -2.68780682e-02 -5.63585907e-02 -5.89031279e-02  2.93720216e-02
  -6.57897592e-02 -1.48688465e-01  6.12030039e-03  1.79413743e-02
   1.33339942e-01 -1.85014307e-01  1.46383360e-01 -1.27759026e-02
   7.57861882e-02 -7.07480088e-02 -1.01081885e-01 -1.53424338e-01
   1.07167296e-01  5.21088392e-02  3.75464186e-02  3.89119759e-02
   4.38133590e-02 -1.19753920e-01 -7.14653730e-02  2.75488310e-02
   8.00990220e-03 -1.30356783e-02  1.40764266e-01 -2.73385998e-02
  -5.93656814e-03 -8.24753009e-03 -6.43202960e-02 -8.11099410e-02
   8.45112745e-03  1.77143291e-02  4.16159704e-02  5.39986193e-02
  -6.97830841e-02 -3.34964246e-02  3.33927572e-02  1.49218738e-01
  -1.18314780e-01 -6.42275885e-02  1.03912801e-01 -1.31874546e-01
  -2.95198970e-02  1.95711374e-01 -1.12232536e-01  9.71067771e-02
   1.42508298e-02  6.53102770e-02  2.24087924e-01 -9.04443115e-03
  -1.79649547e-01 -1.62604541e-01 -1.31698519e-01 -1.24912292e-01
   6.15975261e-02 -2.72505973e-02 -9.09474716e-02 -8.36221650e-02
   1.95780098e-01  1.01034768e-01  9.88720357e-02 -8.91278163e-02
  -7.94942006e-02 -7.05353469e-02  1.85371384e-01 -1.01394460e-01
   1.51952535e-01 -1.63003951e-01  1.96986243e-01 -1.68687195e-01
  -2.01616902e-02  1.20434649e-01 -4.87213768e-02  1.38721630e-01
   1.26865298e-01 -5.03947921e-02 -4.12472039e-02  4.15159725e-02
  -4.24920283e-02  6.56855181e-02 -9.41824690e-02 -4.31862213e-02
   8.79843906e-03  6.12337328e-02 -3.08914520e-02 -4.51025665e-02
  -1.15413882e-01 -8.39944184e-02 -4.06417586e-02  7.61442408e-02
   1.34880379e-01 -9.11700651e-02 -1.78523771e-02 -2.58360188e-02]
 [ 1.06800057e-01 -7.18192607e-02  1.27985984e-01 -6.68311566e-02
  -1.12604246e-01  1.06609344e-01  3.03193908e-02  1.52165502e-01
   1.15749620e-01 -5.89314383e-03 -1.75863147e-01  9.25994515e-02
   6.45925254e-02  2.20736470e-02 -4.56672115e-03 -6.64659515e-02
  -1.14966832e-01  4.96189371e-02 -1.18383318e-01  1.53690353e-01
  -1.62914023e-01 -2.82187648e-02 -1.14580803e-01  1.06745906e-01
   1.68764626e-03  1.22184433e-01 -5.49046732e-02 -1.79420784e-01
  -2.29344413e-01 -7.47926831e-02 -3.13192210e-03  2.44403463e-02
  -3.38574834e-02 -8.35517049e-02 -1.07159548e-01 -7.75394961e-02
  -2.58521885e-02 -1.58752576e-01 -2.85189580e-02 -5.61800599e-02
   1.27102390e-01 -1.03425130e-01  2.35501960e-01 -9.14404020e-02
   9.24605280e-02 -5.43654077e-02 -1.62363872e-01 -5.03808223e-02
   3.52808088e-02  3.39869633e-02  1.25774726e-01 -1.37776528e-02
   1.75518677e-01 -8.16465840e-02 -6.25180677e-02  2.80190855e-02
  -3.81259620e-02 -2.06608139e-02 -4.18211939e-03  3.68674994e-02
  -1.41834974e-01 -2.03181114e-02  5.23822941e-02 -3.69962230e-02
  -1.02479793e-02  2.70251818e-02  3.73702794e-02  6.97346106e-02
  -9.59711224e-02  3.43388915e-02 -3.62778977e-02  1.02295473e-01
  -1.40955344e-01 -2.01157182e-02  1.22394003e-01 -1.90332144e-01
  -6.56846911e-03  4.86921817e-02 -7.34774992e-02  9.87408608e-02
  -6.51049912e-02 -1.07715130e-02  1.26527891e-01 -6.15737662e-02
  -1.69871628e-01 -8.32391679e-02 -1.44063383e-01  1.26202975e-03
  -6.39679879e-02 -9.37413797e-02  1.49626568e-01 -2.67867446e-02
   1.73528612e-01  6.66337833e-02  1.56360343e-01  1.61815211e-02
   1.66962743e-01 -2.46814406e-03  4.84374277e-02 -5.98704107e-02
   1.43091992e-01 -1.41407579e-01  1.14829190e-01 -1.39501393e-01
  -1.73696429e-02  1.59190804e-01 -1.41784428e-02  1.16318025e-01
   1.01353094e-01 -3.93111818e-02 -1.53405964e-01  5.00776507e-02
   8.52155685e-02  1.38813108e-01  9.14656967e-02  9.79525745e-02
  -1.59102604e-02  5.66807762e-02 -5.96347190e-02 -8.78617913e-02
  -1.24116249e-01 -1.83490619e-01  1.21410722e-02 -5.28128147e-02
   8.25522617e-02  4.64755297e-02  6.86905230e-04 -1.71444744e-01]
 [ 1.52216062e-01 -8.13380331e-02  8.81346166e-02 -1.42174065e-02
   1.03463242e-02  2.00037584e-02  2.46982742e-02  1.16547205e-01
   1.84468865e-01  4.81353775e-02 -1.08912088e-01  1.40495524e-01
   1.52492046e-01 -7.59024173e-02 -2.28829570e-02 -1.55483603e-01
  -1.55247688e-01  1.09659970e-01 -1.78327877e-02  2.62597054e-01
  -5.84043041e-02  5.05115539e-02  8.34436715e-03  1.29943848e-01
  -3.98046337e-02  1.61596507e-01 -6.55319244e-02 -1.70799807e-01
  -2.11929336e-01 -1.13114804e-01  1.89328585e-02 -5.87530844e-02
   6.62981421e-02 -7.29724625e-03 -7.29103982e-02 -1.53037002e-02
   2.52986196e-02 -8.23994353e-02  2.12354176e-02 -2.04356089e-02
   4.59370762e-02 -2.47747853e-01  2.76191711e-01 -9.25794989e-02
   9.99719054e-02 -1.75988853e-01 -1.33446395e-01 -1.41182899e-01
  -3.99546959e-02  9.18894336e-02  1.68989509e-01  1.04221422e-02
   1.26494855e-01 -7.33746514e-02  1.37253478e-02 -1.03690699e-01
   3.12956572e-02  8.92450511e-02 -2.28746179e-02 -1.40664056e-02
  -9.83437672e-02 -4.62133847e-02  4.47863601e-02 -3.53778005e-02
  -5.84923550e-02 -2.08857525e-02  3.45599689e-02  1.13749012e-01
  -9.20585394e-02 -1.37709379e-02  2.01565363e-02  1.05238706e-01
  -1.43434092e-01  3.71106230e-02  2.58060992e-01 -7.31162876e-02
  -5.31093925e-02  1.10572800e-01 -1.04242079e-01  1.77470103e-01
   9.70770512e-03 -7.41153024e-03  1.44919321e-01 -9.23746638e-03
  -1.89152926e-01 -1.90866366e-01 -1.54636860e-01 -1.17546339e-02
   3.13030109e-02 -5.10801114e-02  8.90398175e-02 -5.56651317e-02
   2.81463861e-01  5.20447791e-02  6.71363771e-02 -1.79528054e-02
   1.77284017e-01 -2.11055931e-02  5.97659079e-03 -1.26929298e-01
   2.76986122e-01 -1.96740478e-01  1.06357895e-01 -1.64907709e-01
   6.36254251e-02  1.21318124e-01  1.09687321e-01  6.68322071e-02
   2.87128035e-02 -1.50558740e-01 -2.13616088e-01  1.14844665e-01
  -5.13259806e-02  3.04046601e-01 -9.03076380e-02  1.90769181e-01
   6.89409208e-03  2.35842913e-01 -1.01939151e-02 -4.45612967e-02
  -1.09040670e-01 -5.39866090e-02 -6.25655577e-02 -8.09392799e-03
   5.62688001e-02  5.00913784e-02  2.56872382e-02 -1.59041509e-01]
 [ 1.92956880e-01 -1.65298581e-02  1.32114574e-01 -4.86585870e-02
  -3.00763417e-02  1.71894073e-01 -5.39734475e-02  1.19015619e-01
   9.91208106e-02  4.38246913e-02 -1.18890025e-01  1.98078647e-01
   2.34157592e-01  8.89424011e-02 -1.38600566e-03 -1.41665131e-01
  -2.37021580e-01  2.56429147e-02 -7.91011453e-02  4.02625531e-01
  -1.34949356e-01 -1.35339141e-01 -9.20769870e-02  1.80905044e-01
  -4.33405377e-02  6.75222129e-02 -1.44702988e-02 -8.44527110e-02
  -3.26293677e-01 -9.57158282e-02  5.45971058e-02  1.72247916e-01
   9.69945863e-02  2.68631838e-02 -6.81684762e-02 -1.25850469e-01
  -7.64564350e-02  1.61964625e-01 -6.47931993e-02 -1.12813562e-01
   3.38413343e-02 -5.51311206e-03  2.05108300e-01 -6.37136027e-02
   1.95504129e-02 -3.12826000e-02 -1.04996273e-02 -8.24881569e-02
  -2.09513307e-02  8.62172022e-02  2.45458007e-01  9.34964642e-02
   1.86322868e-01 -1.12876616e-01 -5.87549098e-02  2.87949964e-02
   3.33158784e-02 -3.81803657e-05 -3.87277231e-02  3.04727303e-03
  -1.91082612e-01  2.68768519e-02 -1.21748820e-01  6.45118952e-02
  -4.93896753e-02  2.92886812e-02 -9.21355635e-02  8.83010328e-02
  -2.04548702e-01  3.93515192e-02  2.34384257e-02  3.85815091e-03
   4.11847532e-02  9.59133506e-02  2.14244485e-01 -1.67949088e-02
   4.41579595e-02  7.72128254e-02 -1.02816522e-01  2.18543276e-01
  -7.56347030e-02 -1.57790948e-02  6.01772889e-02 -1.60484552e-01
   1.48386359e-01 -1.10095628e-01 -1.14682287e-01 -3.15487012e-02
  -6.50386736e-02 -2.86340024e-02  1.39908701e-01  3.25162672e-02
   2.62808859e-01  9.04254839e-02  9.02870372e-02 -7.07896873e-02
   1.91423386e-01  5.74981794e-02 -1.42183423e-01 -2.56524801e-01
   1.87965900e-01 -8.30844627e-04  2.93719888e-01 -1.03491127e-01
  -1.50583014e-01 -3.51403840e-02 -2.68177800e-02 -6.09506220e-02
  -6.93802088e-02 -1.58929855e-01 -9.15537700e-02  1.50309891e-01
  -2.48089954e-02  2.33361542e-01  1.86216999e-02  1.00080766e-01
   1.58879980e-01  2.01066658e-01  6.89649954e-02 -8.34606290e-02
  -4.11726609e-02 -5.47121046e-03  5.41874766e-02 -2.20071767e-02
   1.03989050e-01  6.23068959e-02 -4.75141071e-02 -1.11133978e-01]
 [ 4.76386361e-02 -4.79640700e-02  1.37905762e-01  9.69583914e-02
   1.19077407e-01  1.68217912e-01 -1.08619846e-01  2.12241814e-01
  -3.78443412e-02  5.45206219e-02  4.16347757e-02  1.61770791e-01
  -7.43786618e-02  8.51047561e-02 -6.52952790e-02  7.69990310e-02
  -1.47416145e-01 -3.68950628e-02 -2.77964436e-02  1.94177061e-01
  -4.26212139e-02 -8.71275365e-02 -1.65948141e-02  7.15403259e-02
   1.46951471e-02  2.51775950e-01  2.34163292e-02 -8.76211897e-02
  -2.11072594e-01  2.22468358e-02  6.73477873e-02  2.22002849e-01
   8.81122127e-02 -7.85436705e-02  5.73124643e-03  5.05981818e-02
  -2.04700921e-02  1.04746588e-01 -6.82759518e-03 -2.44949758e-02
  -4.11911123e-02  3.51076946e-02 -1.07038021e-02  5.02195582e-02
   1.34308621e-01 -6.28242791e-02 -7.80364349e-02  2.35794764e-02
   1.50863409e-01  3.93815339e-02  1.71597257e-01  4.87391688e-02
   1.77914381e-01 -7.91940838e-02  5.52336387e-02  5.21086762e-03
   4.02117781e-02  1.19491234e-01 -1.04448400e-01  1.32832676e-01
  -2.69584447e-01  4.44588438e-03 -5.00636846e-02 -1.70573164e-02
   2.16621738e-02  5.65960519e-02  1.09121120e-02  1.15100421e-01
  -5.46482503e-02 -1.34129741e-03 -4.11644615e-02  5.31862453e-02
   1.14573494e-01 -7.33109564e-02  3.22323114e-01 -1.40261017e-02
   2.48256549e-02 -8.96011516e-02 -3.78318503e-02  1.56669542e-01
  -2.12918103e-01  6.28921166e-02  1.76786259e-02 -2.23611847e-01
   1.31844550e-01 -1.66176647e-01  3.18150781e-02 -5.30461036e-02
  -1.91390608e-02  1.67212322e-01  3.15821879e-02  3.00772209e-02
   2.05208197e-01  2.18832701e-01  2.48818509e-02  3.55903544e-02
   1.82839885e-01  1.16521828e-01 -9.90071818e-02 -2.05339983e-01
   1.84743270e-01 -6.49490058e-02  4.05091159e-02 -5.61979190e-02
  -5.19638741e-03 -3.33251730e-02  3.50011885e-02  6.65922537e-02
  -8.34889263e-02 -1.30802006e-01 -1.02865905e-01  1.73050910e-01
  -4.34495769e-02  1.82540089e-01 -3.31270210e-02  6.54149875e-02
   3.01330071e-02  2.14329697e-02  7.00630620e-02 -7.10527971e-02
  -9.68539268e-02 -4.24314570e-03 -3.05800196e-02  5.93020022e-02
   1.30778626e-01  5.45858517e-02 -6.16534464e-02  3.51117551e-03]
 [ 2.76582152e-01  5.62174171e-02  1.80523887e-01 -5.19962534e-02
   5.20242974e-02  1.31732479e-01 -4.57252972e-02  3.63253891e-01
   9.98735800e-02  2.67680977e-02 -3.74278098e-01  2.40379214e-01
   2.19365954e-01  3.06887850e-02  1.41875679e-02 -1.01589700e-02
  -2.94016182e-01 -1.62899613e-01 -1.24022596e-01  2.23655075e-01
  -3.36989999e-01 -1.04452176e-02 -7.20195472e-02  4.66331579e-02
  -6.52445182e-02  2.62710899e-01 -1.38374671e-01 -8.70626792e-02
  -1.43365756e-01 -1.55452058e-01  1.67771101e-01  1.08508497e-01
   5.41304871e-02  2.04823762e-02 -1.35821953e-01  1.91018041e-02
  -2.24681377e-01  1.06418766e-01 -1.14075253e-02 -2.28529871e-02
   1.48839340e-01 -1.78883553e-01  5.69360293e-02 -1.33186221e-01
   2.59960145e-01 -1.21514425e-01 -3.01242739e-01 -3.11168898e-02
   1.34153649e-01  1.83705911e-02  2.35037461e-01 -6.35069609e-02
   3.87003779e-01 -5.73013462e-02 -4.74576111e-04 -8.17942396e-02
   3.67042750e-01  4.78602163e-02 -4.14505452e-02  6.93762973e-02
  -4.30808127e-01 -2.44181931e-01  4.76596989e-02 -8.17016291e-04
   4.46671918e-02  9.95863508e-03 -5.90977557e-02  3.65761667e-01
  -1.68023393e-01 -1.29545387e-02 -2.13399932e-01  1.36880100e-01
   1.04273543e-01  6.84395283e-02  5.71621418e-01 -9.39450264e-02
  -3.48899662e-02 -8.05998500e-03 -1.53579682e-01  1.77386552e-01
  -1.23839475e-01 -5.47431060e-04  1.62791416e-01 -4.42439973e-01
  -1.43301457e-01 -2.88897127e-01 -1.39322057e-01  3.64861377e-02
  -1.25134081e-01  8.30750167e-02  1.87329948e-01 -1.69950724e-01
   5.69749951e-01  6.49386421e-02  2.18541384e-01 -2.70008445e-01
   1.26663402e-01 -5.59951924e-02  2.93427939e-03 -3.51654977e-01
   4.28652704e-01 -7.69319460e-02  2.17343777e-01 -9.58740264e-02
  -5.12136035e-02 -3.18945386e-02 -7.04790354e-02  3.46639127e-01
   7.27840513e-02 -6.13485500e-02 -3.22059989e-01  1.39084280e-01
   4.14861105e-02  6.02487087e-01 -9.22870785e-02  2.77690232e-01
   7.05356598e-02  2.25953519e-01 -1.63977847e-01 -1.67536601e-01
   1.59097165e-02 -1.00187279e-01 -5.86827733e-02  8.37601498e-02
   2.52234906e-01  7.48081133e-02 -4.48539965e-02 -2.65842229e-01]
 [-1.11707456e-01  1.25384107e-01 -6.29301295e-02  2.84463286e-01
  -8.68680850e-02 -8.92541483e-02 -2.33072549e-01 -1.12565160e-01
   7.08635524e-02 -6.16283491e-02 -7.02332199e-01  3.33159477e-01
  -2.24724203e-01 -1.77872758e-02 -4.72900659e-01  4.99279171e-01
  -1.28044020e-02  3.44860524e-01 -2.25390773e-03  9.95591953e-02
  -4.05625969e-01  1.59203932e-01 -1.02640890e-01  2.52524763e-01
  -3.03474367e-01  9.12038982e-02  2.16420710e-01  3.50278527e-01
   3.76338214e-01 -2.82692313e-01  2.46371493e-01  1.16111219e-01
  -7.13013187e-02 -2.52325982e-02 -1.42266884e-01 -1.15650159e-03
  -3.76890451e-01 -3.64915162e-01 -3.49236503e-02  9.79638007e-03
  -2.95613497e-01  4.78712410e-01 -1.07154384e-01  9.55497101e-02
  -1.88130304e-01 -1.10693369e-02 -8.50841179e-02 -1.40427753e-01
  -4.82722551e-01  1.20386764e-01 -2.22186476e-01  6.86489344e-02
   5.38871348e-01  5.08826852e-01 -3.71229142e-01  6.84846751e-03
   3.27091515e-02  6.20605201e-02 -3.18091035e-01 -7.63428584e-02
   2.67028995e-02 -4.14262533e-01 -8.02624077e-02  2.70491056e-02
  -8.69038552e-02  2.28406101e-01  1.76984295e-01  4.56074953e-01
   1.53965056e-01 -1.81599900e-01 -2.11325958e-01  3.55002098e-02
   3.70490924e-02  1.73476022e-02  6.00045808e-02 -9.13072824e-02
   6.85376450e-02  4.87351753e-02 -2.53334967e-03  8.95685554e-02
  -2.52891719e-01  2.07435429e-01 -3.84082794e-02  6.07209168e-02
   2.11618483e-01  8.67752731e-02  1.09389208e-01 -2.43307669e-02
   4.75277752e-02  2.79875398e-01  4.15538520e-01 -1.50178239e-01
   6.83122039e-01  4.61102761e-02 -1.59939064e-03  2.99383849e-01
   2.22497717e-01  5.84234903e-03  9.46010929e-03 -2.80228615e-01
   7.77196169e-01 -1.94096923e-01  3.64419848e-01 -8.96276790e-04
   9.05127600e-02  9.46760476e-02 -3.15384328e-01  4.93620336e-01
   6.94576353e-02  3.40262894e-03  1.73469856e-01  3.40431243e-01
   1.49681966e-03  3.53011005e-02 -1.31467566e-01 -1.92850113e-01
  -1.19101726e-01 -2.22306624e-01 -1.47358224e-01  1.88457072e-01
  -1.44412011e-01 -1.90501660e-01  6.70911148e-02  3.46990943e-01
   3.05846006e-01 -1.38238430e-01 -2.63276070e-01  3.47538620e-01]
 [-4.18874025e-01  1.47670746e-01 -5.59427381e-01  2.13189587e-01
  -7.12572113e-02  2.16963559e-01  2.21788585e-01 -4.80081171e-01
  -1.33876689e-02 -1.73410535e-01 -5.95435262e-01 -8.58835876e-02
  -3.96094710e-01  4.52188626e-02 -6.29890919e-01  6.18672490e-01
   2.52911091e-01  6.22831106e-01  3.64857107e-01 -3.05543691e-02
  -2.88479447e-01  6.42970949e-02  2.51928717e-01  1.80043608e-01
  -1.24278944e-02 -2.49654531e-01  5.66962838e-01  6.40429795e-01
   5.20708442e-01 -1.78608194e-01 -4.79528397e-01  5.65544963e-02
   1.14015758e-01 -9.94752720e-02 -1.28328919e-01 -1.29227014e-02
  -5.88871062e-01 -4.83509809e-01  1.28634244e-01 -8.12678710e-02
  -2.89809167e-01  4.14346516e-01 -5.26044905e-01 -4.88100462e-02
  -3.59339267e-01 -7.73553923e-03  1.01430990e-01 -1.85673192e-01
  -7.63943791e-01  9.72044095e-02 -5.87236583e-01 -2.50449181e-01
  -2.43850872e-02  5.91079652e-01 -6.08464956e-01 -8.12792853e-02
  -2.77418107e-01 -1.45875826e-01 -5.41490912e-01  1.46774007e-02
   2.54486859e-01  2.72709697e-01 -6.70614839e-02 -2.52012648e-02
   1.19913831e-01 -2.41389155e-01  1.27421826e-01 -1.37473449e-01
   2.92817712e-01 -7.48360604e-02 -3.73075396e-01  2.12009862e-01
  -5.10401726e-01  4.78434041e-02 -7.57589042e-02 -2.18442976e-01
  -3.42178643e-02 -8.26671198e-02  7.42929161e-01 -3.33555222e-01
   4.07668054e-01  3.12974751e-02 -5.57211936e-01  4.02009398e-01
   5.77765465e-01  4.02969629e-01 -1.58447206e-01 -6.78419194e-04
   4.23650414e-01  7.65773356e-01  5.06635010e-01 -1.44238710e-01
   7.70865619e-01  3.70903984e-02 -5.30669987e-01  6.46690369e-01
  -1.07797064e-01  1.00503396e-03 -1.50110852e-02 -2.19297171e-01
   7.46936798e-01 -2.18749255e-01  2.56157182e-02  4.38593000e-01
  -4.01597053e-01  4.10139143e-01 -5.95797122e-01  2.89575875e-01
  -3.65850419e-01  8.05435032e-02  5.60703695e-01  6.41719773e-02
   1.17637403e-01 -6.61286891e-01  3.21851045e-01 -2.10019916e-01
  -4.20375586e-01 -8.33942473e-01  2.11262390e-01 -1.33849129e-01
  -3.33108269e-02 -1.91613927e-01  4.77461398e-01  6.14292204e-01
   1.41294762e-01 -2.18966842e-01  2.25844502e-01  4.88620073e-01]
 [ 7.22487792e-02  1.41919538e-01 -7.08280131e-02 -6.05691791e-01
   4.18544672e-02  7.03899637e-02  4.55196291e-01  4.94126379e-02
   7.96404779e-02  2.29733437e-02 -4.73074585e-01  2.63635442e-02
   4.85531986e-01 -7.42587298e-02  2.92001605e-01 -1.96429670e-01
  -3.43144499e-02 -7.49761239e-02 -2.10966961e-03 -1.42390862e-01
  -2.61573613e-01  2.10798979e-01  3.30978096e-01  7.54770115e-02
  -1.32438153e-01  3.79891723e-01 -4.06816900e-01 -7.17132837e-02
  -8.33731145e-02 -1.39649928e-01 -5.31525671e-01  2.16628499e-02
   3.82436842e-01 -8.60194564e-02  9.92568061e-02 -1.05950586e-01
   5.26186377e-02 -1.25689179e-01  1.98894173e-01 -6.22118786e-02
   6.88221812e-01 -4.62511480e-01 -1.12647749e-03 -4.98177171e-01
   3.83575052e-01 -1.23704538e-01 -3.72217774e-01 -2.71055609e-01
   1.37018502e-01 -4.95943315e-02  2.92520016e-01  8.88595358e-02
  -1.55794978e-01  2.88469065e-02 -1.30073931e-02 -1.66232124e-01
  -1.21322080e-01  2.44220152e-01 -1.62086070e-01  1.80470958e-01
  -1.30264685e-01  1.19917966e-01 -2.58196087e-04 -1.78013772e-01
   1.93828896e-01 -3.26612175e-01  2.85587549e-01 -2.00634137e-01
  -3.76691997e-01 -5.09180315e-02 -5.41572511e-01  5.82316697e-01
  -5.20625114e-01  1.30103961e-01  9.42553937e-01 -3.40816915e-01
  -1.65057927e-03  3.63172628e-02  3.56120706e-01 -3.91970575e-01
   5.63489020e-01  2.34485701e-01  2.17177138e-01  5.43503575e-02
  -2.51302481e-01 -3.43391776e-01 -3.26932967e-01 -7.58404061e-02
  -4.15508859e-02  4.33901042e-01 -2.68320292e-01 -1.67291656e-01
   8.95674288e-01  1.85855016e-01  1.08631998e-01 -4.47047114e-01
   5.03375940e-02 -2.93545544e-01 -2.89258012e-03 -2.23900482e-01
   4.79291856e-01 -1.65249512e-01 -1.62348419e-01 -2.47347385e-01
  -4.29671586e-01  5.04260063e-01 -6.30711317e-02  6.57565832e-01
  -5.68343420e-03 -2.69705653e-01 -5.54707944e-01 -5.79807043e-01
   1.09932080e-01 -2.82076091e-01  1.98639050e-01  6.63106084e-01
   2.26170376e-01 -3.78260940e-01 -3.34021986e-01  1.12684429e-01
  -6.95301741e-02 -1.41564041e-01  5.30711472e-01  4.23745513e-02
   1.29555911e-01  2.61603951e-01  3.97731602e-01 -2.55127847e-02]
 [ 5.28535433e-02  8.62127021e-02  3.97789359e-01 -1.88381031e-01
  -6.39374182e-02  7.59327635e-02  1.10621572e-01  4.06165004e-01
  -4.19711508e-03  1.24870583e-01 -3.91539186e-01  7.82199055e-02
   1.29758745e-01  3.81893702e-02  2.02002540e-01 -1.47265941e-01
   2.83629959e-03 -4.37268525e-01 -6.18236177e-02 -2.00254723e-01
  -1.44859329e-01  1.55122429e-01  1.71351701e-01 -6.59126043e-02
  -1.54889092e-01  3.70161772e-01 -3.67513388e-01 -6.74108416e-02
  -5.71903586e-02 -8.44611879e-03 -1.62520200e-01  4.59782511e-01
   2.09221393e-01 -4.98541407e-02  2.07626849e-01 -3.50244977e-02
   2.92372108e-01 -1.11290626e-01 -6.65199198e-03 -1.39540404e-01
   3.94031018e-01 -5.71118355e-01 -9.31949839e-02 -1.12821184e-01
   9.91727859e-02 -1.07816301e-01 -2.07671762e-01 -2.40928084e-01
   3.49374175e-01 -2.82351598e-02  2.53029495e-01 -7.69124404e-02
   3.07106357e-02  1.26711711e-01 -4.25764313e-03 -1.03575841e-01
  -1.10572055e-01  2.56057501e-01 -1.18065685e-01  1.56024201e-02
   2.58539110e-01 -3.56566280e-01  7.23347515e-02 -4.07373399e-01
   1.28226161e-01  1.82309121e-01  3.21079791e-01  1.97353795e-01
  -1.95196912e-01 -1.12474449e-01 -3.35259080e-01  1.20808579e-01
   1.41134247e-01  5.19809946e-02  6.80098116e-01 -1.06823638e-01
   7.22621456e-02 -1.12800241e-01  1.16887726e-01 -5.18225245e-02
   1.38274670e-01  2.35790052e-02  1.57763109e-01  2.03301311e-02
  -1.21054396e-01 -1.69592589e-01 -1.64612532e-01  3.71387079e-02
   3.78543995e-02  1.46615878e-01 -3.27240109e-01 -1.29335418e-01
   4.31978196e-01  7.64821172e-02  2.67431378e-01 -2.90539801e-01
   5.98510019e-02 -2.56938010e-01  1.35845523e-02  8.99931490e-02
   4.11256433e-01 -6.44531548e-02 -2.84611969e-03  3.01124416e-02
  -3.11628506e-02  3.04662455e-02  2.73734421e-01  4.81610596e-01
   1.70091435e-01 -3.37561041e-01 -4.88809228e-01 -7.61209428e-02
   2.05617808e-02  2.05481887e-01 -2.53126770e-01  2.87609130e-01
   2.99485326e-01 -4.20943238e-02 -1.97772637e-01  1.83355838e-01
  -1.24299772e-01 -9.79949310e-02  3.69431645e-01 -8.05251207e-03
   1.40539318e-01  1.93984061e-01  3.60204652e-02  7.99438506e-02]
 [ 8.32148828e-03  6.92683682e-02  3.54144096e-01  5.24934754e-02
   7.82787427e-02  3.92862223e-02 -2.47333109e-01  4.26128626e-01
   7.15473592e-02  1.62832677e-01 -3.19168538e-01  2.73664650e-02
  -6.56723455e-02 -8.91356077e-03  1.73763931e-01 -1.75507545e-01
  -1.19765438e-02 -3.86741221e-01 -2.12251037e-01 -1.42294616e-01
  -1.05181210e-01  2.60601461e-01 -7.09896088e-02  1.45547092e-02
  -2.07863137e-01  3.51874322e-01 -2.24997610e-01 -3.00168991e-02
  -9.09697935e-02 -7.78424144e-02  1.34593382e-01  4.29938674e-01
   2.40001842e-01 -1.49218261e-01  1.41426891e-01  7.65116364e-02
   2.69690633e-01 -7.35219494e-02  9.52575132e-02 -6.89942315e-02
   2.66455889e-01 -2.22257122e-01 -1.80039294e-02  2.16615364e-01
   2.78429892e-02  2.25016661e-02 -1.31592631e-01 -2.75929987e-01
   3.63431901e-01  2.80706584e-01  2.73233414e-01  2.25275084e-02
   3.82669151e-01  1.48341879e-01  1.23346169e-02 -6.02699704e-02
  -1.04741730e-01  2.57682532e-01 -4.09185998e-02 -6.84229285e-02
   2.73204744e-01 -5.09977639e-01  2.80314367e-02 -2.79419273e-01
   3.13503034e-02  2.94946134e-01  3.69045913e-01  5.04874706e-01
  -1.91116203e-02 -1.82534773e-02 -9.21038818e-03 -3.19016606e-01
   4.08297896e-01  3.96833234e-02  3.98511380e-01  9.87621024e-02
   1.16146430e-02 -1.61763936e-01 -1.92730486e-01  2.90003955e-01
  -4.41829324e-01  8.67462158e-02  2.74595052e-01 -1.06240422e-01
  -1.15702458e-01 -2.18645900e-01  2.13867407e-02 -1.48118325e-02
   2.39441488e-02 -1.06631003e-01 -2.01310337e-01 -5.26965745e-02
   2.61312008e-01  7.97966272e-02  3.12494785e-01 -3.41423035e-01
   1.41704530e-01 -3.17588925e-01 -8.23236704e-02  2.80170739e-01
   4.32187974e-01 -1.18960276e-01 -2.91744359e-02  1.71146274e-01
   1.57152861e-01 -2.72313386e-01  4.68753397e-01  2.73170620e-01
   1.96165726e-01 -3.17568213e-01 -3.31996322e-01  3.91425431e-01
  -4.00157087e-03  5.17221630e-01 -5.41648209e-01 -5.65752015e-02
   2.13892549e-01  2.23222524e-01 -1.25502661e-01  1.74054876e-01
  -3.69373858e-02 -5.57064414e-02  1.67761400e-01 -6.89248890e-02
   4.26087081e-01  2.55771905e-01 -3.91869694e-01  1.90966129e-01]
 [ 4.06322293e-02  3.92543525e-02  4.40762527e-02  1.96659774e-01
  -9.13220048e-02 -1.79876775e-01 -1.47834808e-01  2.02203721e-01
   6.27522692e-02 -4.97537069e-02 -7.93786943e-02  1.78870529e-01
   2.17238382e-01  5.82180731e-02  2.70970725e-02 -5.29487152e-03
  -3.59292954e-01 -7.54020922e-03 -2.64350488e-03 -2.21706778e-02
  -4.99122776e-02  2.54797995e-01 -9.30958092e-02  5.89691661e-02
  -2.55064726e-01  5.92206568e-02 -8.56154785e-02 -2.16388494e-01
  -2.65281260e-01 -3.31311852e-01 -4.98695746e-02  1.22704037e-01
  -4.64829691e-02 -4.73047383e-02 -1.31790668e-01 -2.81658620e-02
  -1.20236255e-01 -2.11276505e-02  5.57844155e-02 -9.28216428e-02
   3.59765172e-01 -1.83579966e-01  2.65401512e-01 -1.85079072e-02
   9.82568115e-02 -1.06736183e-01 -4.58144769e-02  5.78447338e-03
   2.57950842e-01  8.26735049e-02  9.83374789e-02 -4.67057787e-02
   2.77500063e-01 -5.28052524e-02 -9.55804214e-02 -1.42084435e-01
   3.64144892e-02 -2.49778293e-02 -2.48605330e-02  1.17393166e-01
  -2.61195093e-01 -1.61999345e-01 -7.04056099e-02 -1.67077556e-01
  -2.26883665e-02  2.09795740e-02  4.70435508e-02  2.79470384e-01
  -9.77699552e-03  6.28055111e-02  3.52478176e-02  1.64336547e-01
  -7.62493089e-02  2.33501308e-02  2.62034625e-01  1.70627827e-04
  -3.53832878e-02  9.83906314e-02 -1.48136720e-01  4.41835552e-01
  -3.74147743e-01  1.99229851e-01  1.69728264e-01 -6.63412288e-02
  -1.77050725e-01 -5.60133122e-02  7.78131047e-03 -1.90107867e-01
   7.74045438e-02  5.97969443e-02  1.11033544e-01  1.11018773e-02
   3.14564824e-01  7.37957433e-02  2.29105309e-01 -4.09516469e-02
   1.99664265e-01  4.08902280e-02  1.02684628e-02 -9.27195698e-03
   1.95841894e-01  4.68215719e-03  2.59011835e-01 -8.28834549e-02
  -1.21689729e-01 -1.16308406e-01  7.45238364e-02  1.43046334e-01
   1.34281376e-02 -5.08035757e-02 -3.77465904e-01  1.82126224e-01
  -6.25711381e-02  1.69125870e-01 -1.89656511e-01  8.76240432e-02
   3.02343518e-01  1.11647889e-01 -6.95477799e-02 -3.44231315e-02
  -1.21857807e-01  3.84067837e-03  6.95675910e-02 -6.09626248e-02
   1.53762177e-01 -2.13222355e-01 -1.38747811e-01 -1.05304338e-01]
 [ 2.42065592e-03 -5.86949587e-02  1.72500148e-01  5.20400405e-02
  -8.34012553e-02 -1.92665279e-01  2.49600574e-01  2.32250005e-01
   1.54432610e-01 -6.64581582e-02 -2.74359375e-01  2.16765434e-01
   3.35590839e-01 -2.72872560e-02  1.30971894e-01 -4.81414469e-03
  -2.09213391e-01 -1.26421973e-01 -2.53838487e-02  8.70405659e-02
  -2.10683048e-01  3.02066416e-01 -1.02729239e-01  5.85897937e-02
  -6.75685629e-02  1.07079245e-01 -2.98716556e-02 -1.30212098e-01
  -1.57958075e-01 -1.79565713e-01  6.27558976e-02 -5.84449200e-03
   4.44123521e-03  3.14761363e-02 -1.64619252e-01  2.20855363e-02
